enzyme	0	1	2	3	4	5	6	7	8	9	10	11	12	13	14	15	16	17	18	19	20	21	22	23	24	25	26	27	28	29	30	31	32	33	34	35	36	37	38	39	40	41	42	43	44	45	46	47	48	49	50	51	52	53	54	55	56	57	58	59	60	61	62	63	64	65	66	67	68	69	70	71	72	73	74	75	76	77	78	79	80	81	82	83	84	85	86	87	88	89	90	91	92	93	94	95	96	97	98	99	100	101	102	103	104	105	106	107	108	109	110	111	112	113	114	115	116	117	118	119	120	121	122	123	124	125	126	127	128	129	130	131	132	133	134	135	136	137	138	139	140	141	142	143	144	145	146	147	148	149	150	151	152	153	154	155	156	157	158	159	160	161	162	163	164	165	166	167	168	169	170	171	172	173	174	175	176	177	178	179	180	181	182	183	184	185	186	187	188	189	190	191	192	193	194	195	196	197	198	199	200	201	202	203	204	205	206	207	208	209	210	211	212	213	214	215	216	217	218	219	220	221	222	223	224	225	226	227	228	229	230	231	232	233	234	235	236	237	238	239	240	241	242	243	244	245	246	247	248	249	250	251	252	253	254	255	256	257	258	259	260	261	262	263	264	265	266	267	268	269	270	271	272	273	274	275	276	277	278	279	280	281	282	283	284	285	286	287	288	289	290	291	292	293	294	295	296	297	298	299	300	301	302	303	304	305	306	307	308	309	310	311	312	313	314	315	316	317	318	319	320	321	322	323	324	325	326	327	328	329	330	331	332	333	334	335	336	337	338	339	340	341	342	343	344	345	346	347	348	349	350	351	352	353	354	355	356	357	358	359	360	361	362	363	364	365	366	367	368	369	370	371	372	373	374	375	376	377	378	379	380	381	382	383	384	385	386	387	388	389	390	391	392	393	394	395	396	397	398	399	400	401	402	403	404	405	406	407	408	409	410	411	412	413	414	415	416	417	418	419	420	421	422	423	424	425	426	427	428	429	430	431	432	433	434	435	436	437	438	439	440	441	442	443	444	445	446	447	448	449	450	451	452	453	454	455	456	457	458	459	460	461	462	463	464	465	466	467	468	469	470	471	472	473	474	475	476	477	478	479	480	481	482	483	484	485	486	487	488	489	490	491	492	493	494	495	496	497	498	499	500	501	502	503	504	505	506	507	508	509	510	511	512	513	514	515	516	517	518	519	520	521	522	523	524	525	526	527	528	529	530	531	532	533	534	535	536	537	538	539	540	541	542	543	544	545	546	547	548	549	550	551	552	553	554	555	556	557	558	559	560	561	562	563	564	565	566	567	568	569	570	571	572	573	574	575	576	577	578	579	580	581	582	583	584	585	586	587	588	589	590	591	592	593	594	595	596	597	598	599	600	601	602	603	604	605	606	607	608	609	610	611	612	613	614	615	616	617	618	619	620	621	622	623	624	625	626	627	628	629	630	631	632	633	634	635	636	637	638	639	640	641	642	643	644	645	646	647	648	649	650	651	652	653	654	655	656	657	658	659	660	661	662	663	664	665	666	667	668	669	670	671	672	673	674	675	676	677	678	679	680	681	682	683	684	685	686	687	688	689	690	691	692	693	694	695	696	697	698	699	700	701	702	703	704	705	706	707	708	709	710	711	712	713	714	715	716	717	718	719	720	721	722	723	724	725	726	727	728	729	730	731	732	733	734	735	736	737	738	739	740	741	742	743	744	745	746	747	748	749	750	751	752	753	754	755	756	757	758	759	760	761	762	763	764	765	766	767	768	769	770	771	772	773	774	775	776	777	778	779	780	781	782	783	784	785	786	787	788	789	790	791	792	793	794	795	796	797	798	799	800	801	802	803	804	805	806	807	808	809	810	811	812	813	814	815	816	817	818	819	820	821	822	823	824	825	826	827	828	829	830	831	832	833	834	835	836	837	838	839	840	841	842	843	844	845	846	847	848	849	850	851	852	853	854	855	856	857	858	859	860	861	862	863	864	865	866	867	868	869	870	871	872	873	874	875	876	877	878	879	880	881	882	883	884	885	886	887	888	889	890	891	892	893	894	895	896	897	898	899	900	901	902	903	904	905	906	907	908	909	910	911	912	913	914	915	916	917	918	919	920	921	922	923	924	925	926	927	928	929	930	931	932	933	934	935	936	937	938	939	940	941	942	943	944	945	946	947	948	949	950	951	952	953	954	955	956	957	958	959	960	961	962	963	964	965	966	967	968	969	970	971	972	973	974	975	976	977	978	979	980	981	982	983	984	985	986	987	988	989	990	991	992	993	994	995	996	997	998	999	1000	1001	1002	1003	1004	1005	1006	1007	1008	1009	1010	1011	1012	1013	1014	1015	1016	1017	1018	1019	1020	1021	1022	1023	1024	1025	1026	1027	1028	1029	1030	1031	1032	1033	1034	1035	1036	1037	1038	1039	1040	1041	1042	1043	1044	1045	1046	1047	1048	1049	1050	1051	1052	1053	1054	1055	1056	1057	1058	1059	1060	1061	1062	1063	1064	1065	1066	1067	1068	1069	1070	1071	1072	1073	1074	1075	1076	1077	1078	1079	1080	1081	1082	1083	1084	1085	1086	1087	1088	1089	1090	1091	1092	1093	1094	1095	1096	1097	1098	1099	1100	1101	1102	1103	1104	1105	1106	1107	1108	1109	1110	1111	1112	1113	1114	1115	1116	1117	1118	1119	1120	1121	1122	1123	1124	1125	1126	1127	1128	1129	1130	1131	1132	1133	1134	1135	1136	1137	1138	1139	1140	1141	1142	1143	1144	1145	1146	1147	1148	1149	1150	1151
RMG28746.1	0.00802694447338581	-0.00433625653386116	-0.011630249209702015	-0.015031905844807625	-0.0014195622643455863	-0.008306245319545269	-0.008322264067828655	-0.010861734859645367	0.0016770819202065468	0.0058524031192064285	-0.009810957126319408	0.001411499921232462	0.0014952446799725294	-0.007641348522156477	0.007732640951871872	0.0009919962612912059	0.004529823549091816	0.008346207439899445	-0.011861314065754414	0.007596296723932028	-0.015159957110881805	0.008884083479642868	-0.010084418579936028	0.008957615122199059	-0.0028287062887102365	0.029677148908376694	0.01236606016755104	-0.01183253899216652	0.0044721742160618305	0.004130014218389988	0.013902362436056137	-0.012349238619208336	0.0025465739890933037	-0.0033711357973515987	0.017278967425227165	-0.003036964451894164	0.009031938388943672	-0.006574180908501148	-0.004118015058338642	-0.005986974574625492	0.0009311269386671484	0.001085046329535544	-0.003195031313225627	0.0008468214073218405	-0.0077770003117620945	0.003971991129219532	-0.004198192618787289	0.008884877897799015	-0.0010208964813500643	-0.020553477108478546	-0.0008112945361062884	-0.003265830222517252	0.0019392443355172873	0.004562102258205414	-0.015438705682754517	0.0036613738629966974	-0.010136060416698456	-0.01313401572406292	0.0020815045572817326	0.013522523455321789	0.011095200665295124	0.011031648144125938	0.002159791300073266	0.0008456339128315449	0.009421883150935173	-0.0005287824315018952	0.006689214613288641	0.0024242864456027746	-0.003340108087286353	0.01079595647752285	-0.0035186507739126682	-0.0011982680298388004	0.0046669491566717625	0.011380033567547798	0.008735566399991512	0.004815579392015934	-0.004297452978789806	-0.0026973728090524673	0.007213899400085211	-0.007159531582146883	0.005146210081875324	0.007705511525273323	0.0034707472659647465	-0.008963271975517273	0.00010054565063910559	-0.0013133265310898423	0.012081747874617577	0.005327287130057812	-0.015953224152326584	-0.008774450980126858	-0.003990713972598314	-0.005376206245273352	-0.002514653606340289	-0.0010220407275483012	0.0005753889563493431	-0.012727398425340652	0.0015175064327195287	-0.022969387471675873	0.006905536167323589	-0.0024638420436531305	-0.0056777652353048325	0.005798695608973503	0.000583888147957623	-0.013585026375949383	0.006896421313285828	-0.005580104887485504	-0.011890036053955555	-0.011739353649318218	-0.008169932290911674	0.0063990033231675625	0.005547751672565937	-0.005805400665849447	-0.0006411320064216852	0.0044036745093762875	0.02084733359515667	0.0033700757194310427	-0.002295286860316992	0.011019770987331867	-0.002798487665131688	-0.007877513766288757	-0.012097346596419811	0.0053601874969899654	0.003846430219709873	-0.011759139597415924	0.003240035381168127	-0.0029623203445225954	-0.005084184464067221	0.004795693326741457	-0.0024137787986546755	0.0016442032065242529	-0.010494686663150787	0.00277946749702096	1.5779163732076995e-05	-0.0018459970597177744	0.0020904901903122663	-0.004166430793702602	0.0023857776541262865	-0.0024165294598788023	-0.0007416603621095419	-0.015779787674546242	-0.013477685861289501	-0.016792602837085724	0.013776831328868866	0.0025407359935343266	-0.005847923457622528	0.006314937956631184	0.0004808311932720244	0.012704480439424515	-0.006666196044534445	0.00456958869472146	0.016151798889040947	-0.00953447725623846	0.00409917626529932	0.018944649025797844	0.007295272778719664	0.001985775073990226	0.004556515719741583	-0.0014232808025553823	-0.005830154754221439	-0.0031745899468660355	-0.002684451639652252	-0.00963541865348816	-0.008177464827895164	-0.004400038160383701	-0.002004429930821061	-0.012422624044120312	-0.010476742871105671	0.0012709468137472868	0.010515326634049416	0.009232118725776672	0.0073045482859015465	-0.004040933679789305	-0.0053662643767893314	0.0023317018058151007	-0.0039113168604671955	0.009145076386630535	0.008674807846546173	0.0010283311130478978	0.001459487364627421	0.00010690896306186914	0.0023085777647793293	-0.0028858298901468515	0.0045616719871759415	-0.007209140341728926	0.011600477620959282	0.0016106335679069161	-0.0018905907636508346	0.0014722003834322095	-0.020334139466285706	-0.002610729308798909	0.01011058408766985	0.0070361183024942875	0.005870520602911711	0.008971459232270718	-0.007064369507133961	0.0002924015570897609	-0.0017794115701690316	-3.196078978362493e-05	-0.003457315033301711	0.0020517404191195965	-0.012792974710464478	0.010033097118139267	0.012645229697227478	0.013705544173717499	0.0024598122108727694	-0.004599456675350666	0.0037089125253260136	-0.0034042701590806246	0.006839350331574678	-0.007612885441631079	0.002144090598449111	-0.00039619143353775144	0.015261181630194187	-0.00310997455380857	-0.0007089482969604433	0.005276808515191078	-0.0001673785300226882	0.002350246999412775	0.0013547013513743877	-0.005619489587843418	-0.005655444227159023	-0.005970978643745184	-0.010957925580441952	0.016236836090683937	0.005928296595811844	-0.009441732428967953	0.005208142101764679	0.001732334028929472	-0.0018296620110049844	-0.001716680359095335	0.011931773275136948	0.000731233274564147	0.00021985574858263135	-0.007691648323088884	0.007299571763724089	-0.0018756873905658722	-0.014419925399124622	-0.0038867874536663294	-0.0096147321164608	0.005162971559911966	-0.008918841369450092	0.009076029062271118	-0.005488848313689232	-0.0033142687752842903	0.005611381493508816	0.009738248772919178	-0.0003076874709222466	-0.0021528899669647217	0.001872428460046649	0.0016746927285566926	-0.0032648644410073757	-0.0014727468369528651	7.449292024830356e-05	0.0039364187978208065	0.00020643368770834059	0.013469372875988483	-0.010614290833473206	-0.0015135789290070534	0.004605364985764027	0.003003924386575818	0.0010038783075287938	-0.03047552891075611	-0.0038662925362586975	-0.010187091305851936	0.012688831426203251	0.00043399035348556936	0.007821930572390556	0.007745780516415834	0.0016187367727980018	-0.022435907274484634	0.0063326857052743435	-0.001817113719880581	-0.0046685971319675446	-0.005084533244371414	-0.0005089189507998526	-0.0003549809625837952	0.0045542954467237	-0.002168625360354781	0.0019248028984293342	0.011576133780181408	0.0036489672493189573	-0.014837166294455528	-0.008547076024115086	0.012986614368855953	-0.016412485390901566	0.011885449290275574	0.008287708275020123	-0.00029906618874520063	-0.0032382761128246784	0.0025877845473587513	0.008885678835213184	0.00997029896825552	-0.005520987324416637	0.012766819447278976	0.0013524623354896903	-0.010789798572659492	-0.005392279010266066	-0.0019012435805052519	0.006244320422410965	-0.004213451407849789	0.0010512187145650387	0.025043105706572533	-0.007368920370936394	0.009912507608532906	0.016084840521216393	0.005417961627244949	-0.0011091195046901703	0.0172712579369545	-0.00118308758828789	0.0044886148534715176	0.00208236719481647	0.007239588536322117	-0.003917135763913393	0.003087644698098302	-0.009908584877848625	0.005703926086425781	0.013828270137310028	0.0008014156483113766	0.006246615666896105	-0.015209291130304337	0.009778611361980438	0.011757450178265572	0.013038449920713902	-0.013165968470275402	-0.003956931643188	-0.0011587220942601562	-0.00898068305104971	0.004820288624614477	0.0037724219728261232	-0.01546065416187048	0.0039902119897305965	-0.0021546180360019207	-0.00617806613445282	0.00019401700410526246	-0.03135604038834572	0.004321209620684385	0.0012058689026162028	0.0014385624090209603	-0.002600333886221051	0.0007807743386365473	-0.004972660914063454	-0.006734170950949192	0.004794987849891186	0.0010996912606060505	-0.007048738654702902	-0.0007097587804310024	0.0023807997349649668	-0.00989685021340847	-0.01178817730396986	0.009085837751626968	0.003938873298466206	0.006102004088461399	-0.0029976489022374153	0.0037315560039132833	-0.0011388076236471534	-0.008377806283533573	-0.005862770602107048	-0.003611542982980609	-0.0052359746769070625	-0.0013534383615478873	0.006424416787922382	0.01399926282465458	0.011237681843340397	0.007187126204371452	0.005014008842408657	0.0002701379999052733	-0.0034172572195529938	-1.9968203559983522e-05	0.009927920065820217	-0.004848521202802658	0.009601527824997902	0.011521241627633572	0.0008340634522028267	0.01038241945207119	0.012735981494188309	0.0016919063637033105	0.009132173843681812	0.008444961160421371	0.009728522971272469	0.009680097922682762	-0.00795469619333744	0.003554027993232012	0.00037582762888632715	0.008948281407356262	0.006070244126021862	0.023204145953059196	-0.008433802984654903	0.016191663220524788	0.003952851053327322	0.015681233257055283	0.01356998085975647	0.002731692511588335	-0.0023342424537986517	-9.784455323824659e-05	0.011346215382218361	-0.009343226440250874	0.022591134533286095	0.0071299332194030285	-0.0028979291673749685	0.005628281272947788	0.007838767021894455	-0.007979785092175007	-0.004794121719896793	0.006061906926333904	-0.003268344094976783	0.011513706296682358	0.007374611683189869	0.005019993521273136	-0.0035164726432412863	0.01082573551684618	0.0021861791610717773	0.00978447962552309	0.0059240879490971565	-0.0007046800456009805	-0.0031816938426345587	-0.010857556015253067	-0.012090956792235374	0.003697840729728341	0.0012050566729158163	-0.00441954517737031	0.0006617330946028233	0.0005668655503541231	0.0023305416107177734	-0.008496316149830818	0.006600960623472929	-0.0038195441011339426	0.005110765341669321	0.005584885366261005	0.001226600375957787	-0.010855584405362606	0.003433067351579666	0.008097832091152668	-0.023518305271863937	0.0037399772554636	0.001676861080341041	0.007838083431124687	-0.0001388148812111467	0.007637455128133297	-0.0065843514166772366	0.0027078327257186174	0.0026019818615168333	0.0008347941329702735	0.0008126699831336737	-0.0056829676032066345	0.0015940405428409576	0.005629702005535364	0.011565875262022018	-0.008464300073683262	-0.003403549315407872	0.006600543390959501	-3.206282781320624e-05	-0.02040182054042816	0.010414805263280869	0.0009743101545609534	-0.0015433396911248565	0.0041076806373894215	0.0031683817505836487	0.002190410392358899	0.007438619155436754	-0.0015743400435894728	0.004842936526983976	0.011438506655395031	-0.0008629433577880263	0.0061527737416327	0.01052932906895876	-0.0020593865774571896	0.0010445170337334275	0.0018077850108966231	0.011707141995429993	-0.011384258978068829	0.015429355204105377	-0.0036456033121794462	0.0017399940406903625	0.015331096015870571	0.0009152851416729391	-0.009126937948167324	-0.0019405973143875599	-0.0001218778925249353	-0.011566627770662308	-0.004434349946677685	0.00946553610265255	0.018251007422804832	0.019201157614588737	0.002239278517663479	-0.0025115155149251223	0.007140117231756449	-0.009998539462685585	-0.007018532138317823	0.004764620214700699	0.0118631636723876	-0.0028282655403017998	0.002820860128849745	-0.0005298486212268472	-0.007232279516756535	0.0030246495734900236	2.645513268362265e-05	-0.002384701045230031	-0.01259907241910696	-0.0036486610770225525	0.010336656123399734	-0.10128102451562881	5.8012035879073665e-05	0.005564878229051828	0.009178574196994305	0.0053635756485164165	-0.011042640544474125	0.0043150982819497585	0.00667511997744441	-0.004266548901796341	0.0005307648680172861	0.00884679052978754	-0.00960383377969265	0.008873621933162212	0.0034389279317110777	-0.014083677902817726	0.0037553010042756796	-0.01166609488427639	-0.004390029702335596	0.0034192679449915886	-0.003934171050786972	0.004688035696744919	0.0035872708540409803	-0.30266711115837097	0.0009589592809788883	0.006878674495965242	-0.012022003531455994	-0.004046069458127022	-0.0001049766069627367	-0.004562376067042351	-0.003305703168734908	-0.00023118792159948498	-0.0130056943744421	0.003965978976339102	0.007262664381414652	0.007212677039206028	0.002211980754509568	-0.0040779681876301765	0.017435982823371887	-0.005728698335587978	0.0058267307467758656	0.003688950091600418	-0.008340046741068363	0.00028981041396036744	-0.0014030816964805126	0.0027368369046598673	0.005379806272685528	0.0071856300346553326	0.0889924019575119	0.02126702480018139	-0.000943734310567379	0.008952916599810123	-0.0007986803539097309	0.011900875717401505	0.0021067848429083824	0.00805799663066864	-0.0014231166569516063	0.02510436438024044	-0.014239851385354996	-0.009380937553942204	0.01672235317528248	0.005564318969845772	-0.006415746174752712	0.009405985474586487	-0.0012133556883782148	0.008282596245408058	0.005548141431063414	0.004760461393743753	0.001872912747785449	0.0021684716921299696	-0.008900033310055733	0.006713422480970621	0.0033168955706059933	0.0055554891005158424	0.010586542077362537	-0.01671077497303486	-0.005410103593021631	-0.016672998666763306	-0.00845250952988863	0.019067009910941124	-0.004624780733138323	0.009469267912209034	0.007695866748690605	0.010996761731803417	0.0012982214102521539	-0.0058701299130916595	-0.003060226794332266	0.00377281429246068	-0.000734372646547854	0.007041665725409985	-0.002724819118157029	-0.009600446559488773	0.00033413624623790383	0.007780840154737234	-0.0060654073022305965	-0.0009050642838701606	-0.007465489208698273	0.004835471976548433	0.01196376048028469	-0.0028810761868953705	0.005692709237337112	0.006209390237927437	-0.002605264540761709	0.00856867991387844	0.0019330454524606466	0.0010381240863353014	-0.002990144304931164	-0.005827511195093393	0.002778042107820511	-0.003673021448776126	0.009333556517958641	0.014030564576387405	0.00546914292499423	-0.011086104437708855	0.0012694805627688766	0.0005510543123818934	0.01984669268131256	0.007327249739319086	-0.016054552048444748	-0.012131487019360065	-0.00410055834800005	0.133721262216568	-0.0131521699950099	-0.0034649157896637917	-0.0068753804080188274	-0.007393368519842625	0.004378120880573988	0.0069762831553816795	-0.007485516835004091	-0.0021925184410065413	-0.00689504761248827	0.0023326436057686806	-0.00505606085062027	0.0020971186459064484	0.00026089439052157104	0.006366726476699114	-0.007738640997558832	0.010190710425376892	-0.0016630247700959444	-0.006271643098443747	-0.004175262060016394	-0.003864830359816551	-0.010245943441987038	0.00039285331149585545	0.006174200680106878	-0.0020569898188114166	0.015126464888453484	0.015222803689539433	0.010048837400972843	0.0013528080889955163	0.0033796813804656267	0.007313542999327183	-0.010583893395960331	0.005065839271992445	0.007947657257318497	0.002235671505331993	-0.006041457410901785	0.004381957463920116	0.0017073249910026789	0.0006923243636265397	0.0077542332001030445	0.006929919123649597	0.0014074745122343302	0.019105302169919014	0.013238362967967987	-0.012548446655273438	-0.0017756021115928888	-0.011024679988622665	0.0033185381907969713	-0.013840820640325546	-0.0032076637726277113	-0.005832265596836805	-0.0033769214060157537	0.011626455001533031	-0.014838865958154202	0.0022667141165584326	-0.007396653760224581	0.005310348700731993	0.12640860676765442	-0.0062442198395729065	0.00014443993859458715	-0.0016142834210768342	0.007390844170004129	-0.011170552112162113	0.0011703387135639787	0.007417554967105389	-0.0033865850418806076	-0.0024767927825450897	0.0149502232670784	0.005102389957755804	-0.00991758331656456	-0.008667761459946632	-0.0044625550508499146	0.006179034244269133	-0.007821046747267246	-0.014924820512533188	-0.004281209781765938	0.0002297880273545161	-0.0030066408216953278	-0.006624327506870031	-0.2120421677827835	-0.614763617515564	-0.0074303243309259415	-0.005780302453786135	-0.0012021163711324334	0.000556472921743989	-0.0033409465104341507	0.015596198849380016	0.002074140589684248	-0.000837269879411906	0.002923524472862482	-0.00162975222337991	-0.010269567370414734	-0.005394353065639734	-0.0017391766887158155	-0.006020264234393835	-0.004833483602851629	0.019822780042886734	0.003337565343827009	-0.017962530255317688	0.00884903222322464	-0.009109962731599808	-0.0091331098228693	-0.003848573425784707	0.002242323709651828	0.0014764147344976664	-0.003152603516355157	0.006916760466992855	0.0029849589336663485	-0.005852050147950649	0.008360859006643295	-0.009122278541326523	0.013037683442234993	-0.001849985565058887	-0.0017966949380934238	0.01033972017467022	-0.00676492927595973	0.011535171419382095	-0.009165615774691105	0.004085850436240435	-0.010549920611083508	0.017293302342295647	0.02297515794634819	0.002682293299585581	-0.0072923689149320126	0.00892343744635582	-0.0004941591178067029	0.0071746050380170345	0.013395527377724648	0.0014626658521592617	-0.005502264481037855	0.004864242859184742	-0.006453601643443108	-0.002721558092162013	-0.000847253599204123	0.009899930097162724	0.00592296477407217	0.01001007854938507	-0.011002669110894203	0.02556094340980053	-0.0011369320563971996	0.001075340318493545	0.003598873969167471	-0.006249824073165655	0.00489591620862484	-0.008372941054403782	-0.004400643054395914	0.0052551631815731525	0.005712523590773344	0.00974044669419527	0.0076278760097920895	0.0021363028790801764	-0.0017819212516769767	-0.0008430482703261077	-0.005761487875133753	-0.009027102962136269	-0.009693562053143978	0.01000780239701271	0.0007282934384420514	0.008345916867256165	0.001107139978557825	0.007531262002885342	0.003504072083160281	0.008969315327703953	0.00012172441347502172	0.010853192768990993	-0.0010602326365187764	-0.009767658077180386	-0.01726769097149372	0.0011344217928126454	-0.0007626982987858355	0.0032498312648385763	-0.010508931241929531	0.0057553318329155445	-0.0019926971290260553	0.008567415177822113	-0.023688722401857376	0.001684503280557692	-0.00817195139825344	-0.005909400060772896	-0.006505819968879223	-0.0017225031042471528	-0.0027458355762064457	0.005248994566500187	-0.0028871202375739813	0.002398664364591241	-0.011197242885828018	-0.01385816466063261	0.007733780890703201	0.019060440361499786	0.0023500192910432816	0.0006589948898181319	-0.005309065338224173	0.017787545919418335	-0.004844592418521643	0.0023142301943153143	0.004045664332807064	-0.002615254605188966	-0.006693611852824688	-9.54655188252218e-05	0.0016267721075564623	-0.00869544968008995	-0.011107280850410461	-0.006091326009482145	-0.0031941672787070274	-0.0007317087729461491	-0.014919150620698929	-0.0015610799891874194	0.0013525375397875905	-0.004211993422359228	-0.019380098208785057	0.006793080363422632	0.001823542406782508	0.0031165818218141794	-0.0006169280968606472	-0.0011466005817055702	0.012698204256594181	0.005368068814277649	-0.006592141464352608	-0.0036029359325766563	0.007296968717128038	-0.00203440198674798	0.0028537942562252283	-0.0069750286638736725	-0.0041331518441438675	0.0017936102813109756	0.0030213831923902035	0.006571335252374411	0.0045139784924685955	0.0028637691866606474	-0.001744299428537488	0.0009625949896872044	0.005600744858384132	0.002828454365953803	-0.012716216035187244	0.0029177938122302294	0.013975498266518116	-0.004516683053225279	-0.0045102983713150024	0.002214298816397786	-0.011220483109354973	0.015541709959506989	-0.00997340027242899	0.0036192992702126503	0.014727054163813591	-0.0004666884196922183	0.014677418395876884	-0.013492797501385212	0.017082838341593742	-0.00570508511736989	-0.007143228780478239	0.036235105246305466	0.02254883386194706	-0.00952167622745037	-0.0028486335650086403	-0.00190350494813174	-0.0023641749285161495	0.014646202325820923	-0.0003113645943813026	0.008493198081851006	-0.004648983478546143	0.0030306472908705473	-0.01143917441368103	-0.0009139447938650846	-0.0037764424923807383	-0.001294063520617783	0.005624162964522839	0.010588359087705612	-0.024121126160025597	-0.0012550425017252564	-0.006412881892174482	0.012854822911322117	0.002292533637955785	0.004553643520921469	-0.0029815000016242266	0.01503467932343483	0.0011950046755373478	0.004681193269789219	0.009115816093981266	-0.0006653221789747477	-0.012456920929253101	0.006609553005546331	-0.014721041545271873	0.0008235694840550423	-0.0029066442511975765	0.001601599738933146	-0.003901375224813819	0.006562494207173586	0.0017666000640019774	0.005405232310295105	-0.008214322850108147	0.0033107262570410967	-0.004047311842441559	0.004656052216887474	-0.007613187190145254	0.008001942187547684	0.005737016908824444	0.00031976200989447534	0.0096493661403656	0.007182347122579813	0.00892821978777647	-0.020972196012735367	-6.240347283892334e-05	0.003535372903570533	-0.004904946777969599	-0.008500773459672928	0.00551447831094265	-0.019462302327156067	-0.0062003228813409805	0.00945848785340786	-0.008570395410060883	0.002555492566898465	0.016609299927949905	-0.010082214139401913	0.001936236978508532	-0.0010447511449456215	-0.0020720253232866526	0.010031018406152725	-0.010467015206813812	0.011867725290358067	-0.004631021525710821	-0.006088207941502333	-0.004741169512271881	0.0035066783893853426	-0.012839377857744694	0.00045851559843868017	0.009316984564065933	0.0076986271888017654	-0.008455525152385235	0.0002476369554642588	-0.006711186841130257	0.0006728204316459596	0.004081495571881533	-0.026653174310922623	-0.0001045929966494441	0.006052553653717041	0.007835148833692074	0.008758296258747578	0.012304813601076603	0.013440580107271671	0.00718056270852685	-0.0026112154591828585	0.0040606786496937275	0.0066932435147464275	0.006365201901644468	-0.01169342640787363	0.01148231141269207	0.011094092391431332	0.008711891248822212	0.0027561653405427933	-0.0023810153361409903	0.008190962485969067	0.0037821808364242315	0.0033312637824565172	-0.004534102976322174	0.004538010340183973	-0.0070798336528241634	0.0032011091243475676	-0.0013762528542429209	0.014743734151124954	-0.014680342748761177	-0.0018419799162074924	-0.006690262351185083	-0.015122554264962673	0.014910353347659111	-0.008589597418904305	0.004234175197780132	0.00834902748465538	0.005031676962971687	0.011919492855668068	0.003734329715371132	-0.0015659242635592818	0.008849521167576313	0.008999360725283623	0.00464860862120986	0.0029148184694349766	0.0015324841951951385	0.01673860102891922	0.0040810322389006615	-0.00815271120518446	0.00450728926807642	0.0037895881105214357	-0.004558171611279249	-0.0005788629641756415	0.002180177718400955	9.888126805890352e-05	0.00171997444704175	0.012110600247979164	0.00869202520698309	0.004710890352725983	-0.011582465842366219	-0.006924022920429707	-0.009469054639339447	-0.010012471117079258	0.008637051098048687	0.0018993403064087033	-0.007860708050429821	-0.008679506368935108	0.006744328886270523	0.01027754507958889	-0.00985806342214346	-0.006862225942313671	0.0049874549731612206	-0.017161911353468895	-0.00592392822727561	0.02420349419116974	-0.0018524965271353722	0.010548270307481289	0.00960218533873558	0.0016113129677250981	0.008592726662755013	-0.015340562909841537	0.0014015239430591464	0.000310620031086728	0.009390049614012241	0.00011570680362638086	-0.026791809126734734	0.007530308328568935	0.007069031707942486	-0.005344860255718231	-0.0038672517985105515	0.010288409888744354	0.0013063036603853106	0.007342164870351553	0.011561576277017593	-0.09427070617675781	-0.011843991465866566	0.009261277504265308	-0.003590605454519391	-0.004194535315036774	-0.006785572972148657	-0.0048396955244243145	0.00698738731443882	-0.004493398126214743	-0.0015037729172036052	0.005531805567443371	0.0001510728761786595	-0.004549235571175814	-0.009344459511339664	-0.007607745006680489	-0.007263767533004284	-0.006792224477976561	-0.005489022471010685	-0.006305166054517031	0.008892277255654335	0.010269615799188614	0.004851156380027533	0.00883739534765482	-0.000936131807975471	0.006918908096849918	0.015769897028803825	-0.006259520072489977	-0.004976412747055292	0.0024432442151010036	0.016856910660862923	0.013660816475749016	-0.00959090143442154	-0.0010704809101298451	0.007348233833909035	-0.0013294341042637825	0.009653260000050068	0.0022330761421471834	0.006143302656710148	0.01779063232243061	0.0068329316563904285	0.016450682654976845	0.005352525040507317	-0.014375092461705208	0.009723391383886337	0.008615262806415558	-0.014715942554175854	0.007102772127836943	-0.6137627363204956	0.0035294953268021345	0.007166496478021145	-0.00781848281621933	0.014842174015939236	-0.005602434277534485	0.0013899562181904912	-0.00031128289992921054	0.001444997382350266	-0.001312283449806273	0.00963213574141264	0.004033339209854603	0.010439591482281685	-0.000993484864011407	-0.007421978749334812	0.001537627074867487	0.001955036772415042	-0.0029647646006196737	0.004458371549844742	-0.008886842988431454	-0.013148467056453228	-0.004058405291289091	-0.019486350938677788	0.003990403842180967	0.021867578849196434	0.005270693451166153	0.0007856946904212236	0.0033194338902831078	-0.02236439287662506	-0.005327201914042234	-0.011911566369235516	0.00044882349902763963	-0.003093621926382184	-0.002394450828433037	0.003800345817580819	0.0161165501922369	0.0022431903053075075	0.015225572511553764	0.0126504423096776	-0.0057784863747656345	-0.01308103185147047	0.008203325793147087	0.011879149824380875	0.007691331673413515	0.002386328298598528	0.011182733811438084	-0.006472974084317684	0.009110857732594013	0.01802680268883705	-0.01055513508617878	0.004896461497992277	0.009888429194688797	-0.012086727656424046	-0.010985171422362328	0.012197504751384258	0.0030384415294975042	-0.0024589658714830875	-0.015460215508937836	0.0020062176045030355	0.011286500841379166	0.00657385541126132
RLE90674.1	0.006641604471951723	0.0009496787097305059	-0.018686071038246155	-0.0020555101800709963	-0.0028602981474250555	-0.014102394692599773	0.005571980495005846	-0.0030992869287729263	-0.0005101555143482983	0.010361959226429462	-0.018347905948758125	0.02411668188869953	0.0069189295172691345	0.005563326645642519	0.010233191773295403	0.0015521449968218803	0.004235884174704552	0.0036696677561849356	-0.011050915345549583	0.012635152786970139	-0.01960858516395092	0.004923566244542599	-0.0037785200402140617	0.011087512597441673	-0.01625652424991131	0.034789152443408966	4.027301474707201e-05	-0.035754717886447906	0.0023616962134838104	0.010284816846251488	0.00531703932210803	-0.014478717930614948	-0.009286507964134216	-0.003547756699845195	0.017106546089053154	0.0033381402026861906	0.004881418310105801	-0.02695564553141594	0.0006485408521257341	-0.0027590312529355288	0.0031168123241513968	0.0031446360517293215	0.0011377406772226095	0.01556788757443428	-0.007396718021482229	-0.0025299391709268093	-0.012910280376672745	0.010688159614801407	0.004747925326228142	-0.006762691307812929	0.012350009754300117	0.0035152160562574863	-0.012225614860653877	-0.009418286383152008	-0.015837257727980614	-0.001793291768990457	-0.0035668809432536364	-0.004294326528906822	-0.005900770891457796	0.010293367318809032	0.014105194248259068	0.008675267919898033	0.002848413772881031	0.004139725584536791	0.0028112849686294794	-0.006044674664735794	0.0006491235108114779	0.002477796981111169	-0.008164329454302788	0.004150242544710636	-0.012377715669572353	-0.0041803400963544846	-0.002333627548068762	0.012747219763696194	0.010538862086832523	-0.004240954294800758	-0.010234973393380642	-0.016574615612626076	0.011972961947321892	-0.003265760373324156	0.0010155036579817533	0.010217441245913506	8.453022019239143e-05	-0.018755082041025162	0.010496173053979874	-0.008843250572681427	0.02665741555392742	0.010052547790110111	-0.023839620873332024	-0.009200415574014187	-0.0060904361307621	0.0005636991118080914	-0.012934244237840176	-0.019971733912825584	-0.0011264693457633257	-0.0118715800344944	0.004016232211142778	-0.02137482352554798	0.009366754442453384	-0.005830109119415283	-0.00839525181800127	0.0013149470323696733	-0.003644739743322134	-0.028011098504066467	-0.0010032292921096087	-0.017520245164632797	-0.014798971824347973	-0.024652235209941864	-0.014788175001740456	0.003538469783961773	0.01321507804095745	-0.012627565301954746	-0.013492193073034286	0.006375420838594437	0.014305624179542065	0.01069807168096304	-0.0024911053478717804	0.009248035028576851	0.004041389562189579	-0.015489510260522366	0.006481516174972057	0.006910631898790598	3.173174263793044e-05	-0.004402929916977882	0.009019341319799423	-0.007264136336743832	-0.007269624620676041	-0.0018292291788384318	-0.01265826914459467	0.004359301179647446	-0.010414160788059235	-0.0049282219260931015	0.0057481336407363415	-0.0010998286306858063	-0.011653633788228035	-0.0031503483187407255	0.0026433211751282215	-0.00569497887045145	-0.012298770248889923	-0.026263248175382614	0.0007776824058964849	-0.011016790755093098	0.006251463666558266	-0.0020596322137862444	-0.007433020975440741	-0.004510811995714903	0.006441317033022642	0.00801645964384079	0.0009873219532892108	0.013443429954349995	0.014054636470973492	-0.0045377532951533794	0.00028779878630302846	0.011372051201760769	0.01919611357152462	-0.0017478205263614655	0.015371442772448063	-0.009973966516554356	-0.026066534221172333	0.004518454894423485	0.00873595755547285	0.001437764847651124	-0.007413832005113363	0.005606948398053646	0.00020083329582121223	-0.010971279814839363	-0.011678335256874561	0.008682508021593094	0.017505018040537834	0.007324636448174715	-0.0005225510103628039	-0.002818373031914234	-0.0006873804377391934	0.003703225404024124	0.01048363372683525	0.022320639342069626	0.012263139709830284	0.008442623540759087	-0.0016295023960992694	-0.009556449018418789	-0.00046369057963602245	-4.214636646793224e-05	-0.007656408473849297	-0.008795543573796749	0.005446452181786299	-0.009007938206195831	-0.007150060031563044	0.001622579526156187	-0.013783074915409088	-0.00628385366871953	0.00300150690600276	-0.012016904540359974	0.004429176915436983	0.02885056845843792	-0.00033851349144242704	-0.010240195319056511	0.0019111443543806672	0.0074896179139614105	-0.004477686248719692	0.009362547658383846	0.0030433288775384426	-0.0018687618430703878	0.024637045338749886	0.021629367023706436	0.0001466501271352172	0.0012706543784588575	-0.0032478738576173782	0.0035347864031791687	-0.00494591286405921	0.002708790823817253	0.02087187021970749	-0.004318212624639273	0.020901205018162727	0.0012762126279994845	-0.008266854099929333	0.0010184893617406487	-0.0058084880001842976	-8.221714233513921e-05	-0.006813677493482828	0.011161195114254951	-0.011641588993370533	0.004231603816151619	-0.0032744191121309996	0.006209696177393198	0.008213567547500134	-0.0061309607699513435	-0.00025123715749941766	-0.0115748830139637	0.006793995853513479	0.0023824693635106087	0.016088636592030525	0.0004328477953094989	-0.003355058142915368	0.00815557036548853	0.0142741147428751	-0.0016418697778135538	0.0012510099913924932	0.003790099872276187	-0.009318080730736256	0.005829238798469305	-0.009042277932167053	0.011133525520563126	-0.003660679329186678	-0.010415652766823769	0.0027586722280830145	0.01675177365541458	-0.0022204015403985977	-0.001988156232982874	0.017103087157011032	0.011771970428526402	-0.0012941196328029037	-0.013228359632194042	-0.006535457447171211	0.0041618044488132	-0.005202381871640682	0.017484474927186966	-0.007345185615122318	-0.005176243372261524	0.010346583090722561	-0.0008346877293661237	0.003684516530483961	-0.03731580451130867	-0.014353535138070583	-0.008042575791478157	0.019356148317456245	-0.008261391893029213	0.008650093339383602	-0.0024222054053097963	0.010312944650650024	-0.010450907982885838	0.007381709758192301	-0.001720775500871241	0.01717522367835045	-0.008690664544701576	0.0029524548444896936	-0.012621571309864521	-0.0008708999957889318	0.005121816415339708	0.0008425057167187333	-0.007194764446467161	-0.0016416446305811405	-0.023959681391716003	0.00560216186568141	0.017202872782945633	-0.026292022317647934	0.01315981987863779	0.007379679940640926	0.000569253577850759	0.004579462576657534	0.008538984693586826	0.021019384264945984	0.006517569534480572	-0.01467321440577507	0.020385459065437317	0.004515387583523989	-0.013515779748558998	0.000489960890263319	-1.3256416423246264e-05	0.005827541928738356	0.0011982308933511376	0.0032933836337178946	0.02575206197798252	-0.002263931790366769	0.0011012771865352988	0.016666192561388016	-0.012794220820069313	0.0004448108375072479	0.008081513457000256	0.017557915300130844	-0.00010913953883573413	0.005644103512167931	0.004801917355507612	-0.006675512995570898	0.006134336814284325	-0.008792412467300892	-0.0004942783270962536	0.022989198565483093	-0.004514136351644993	0.004012374673038721	-0.02207855135202408	0.00510491942986846	0.00483591528609395	2.3501823307015002e-05	-0.006678886711597443	0.009539375081658363	-0.007495406549423933	-0.01044129766523838	-0.00021989831293467432	0.012376051396131516	-0.0011074986541643739	-0.00922953337430954	-0.006840933114290237	-0.008824276737868786	0.0005487757152877748	-0.05205261707305908	0.0027532964013516903	-0.0013624466955661774	0.001586800324730575	-0.0009122266783379018	-0.0011094205547124147	-0.008810697123408318	-0.004440865479409695	-0.0067069996148347855	-0.005623004399240017	-0.00824708305299282	-0.023410513997077942	-6.553444836754352e-05	-0.0192266795784235	-0.004829685669392347	0.016369247809052467	-0.0002890106989070773	0.013177751563489437	0.009914406575262547	0.0060544004663825035	0.0042077526450157166	-0.010639620013535023	-0.015920832753181458	0.000949040986597538	-0.009598974138498306	0.005487341433763504	-0.01789427548646927	0.009510391391813755	0.030581055209040642	0.008116639219224453	0.007670903578400612	0.008923100307583809	0.0029967371374368668	0.007336233742535114	0.02376382239162922	-0.008567165583372116	-0.001976634841412306	-0.005767846945673227	0.0037846844643354416	0.010519943200051785	0.0073995525017380714	-0.004630866926163435	0.015371805056929588	0.01187068596482277	0.012982211075723171	0.00682603707537055	-0.0025325980968773365	-0.001253519207239151	-0.009890641085803509	0.013917628675699234	0.00500501086935401	0.012182521633803844	-0.008550441823899746	0.012583188712596893	0.006286024581640959	0.0029262069147080183	0.022994915023446083	-0.0040511214174330235	-0.002449201187118888	-0.009838317520916462	0.010153504088521004	0.006210191175341606	0.02989204414188862	0.0004962835228070617	0.012984180822968483	0.00904413964599371	0.018155748024582863	-0.00997400376945734	-0.0004031058051623404	0.019488299265503883	0.002371757058426738	0.0025691583286970854	0.00326552614569664	-0.001597253605723381	0.0040418896824121475	0.006028348580002785	-0.0056752730160951614	0.0032693608663976192	0.004665408283472061	0.004779617767781019	-0.004748881328850985	-0.0002318477927474305	0.0013422556221485138	0.008975113742053509	0.0032533996272832155	0.010311766527593136	-0.005370139144361019	0.0017769112018868327	-0.002861117012798786	-0.010228986851871014	0.0028400954324752092	0.009732691571116447	0.006466559134423733	0.0012193924048915505	0.019825728610157967	-0.0030661877244710922	-0.003859443822875619	0.004232724662870169	-0.013172009959816933	0.0058312444016337395	0.0019588905852288008	0.014983207918703556	-0.00249403971247375	0.00702684698626399	0.004146508406847715	0.003900316311046481	-0.006395258475095034	0.0034961795900017023	0.006404148414731026	-0.006357762962579727	0.01062646135687828	0.004018843639642	0.021879399195313454	-0.002305417787283659	-0.010567449033260345	-0.004588720388710499	-0.009456371888518333	-0.03442106395959854	0.004557066597044468	-0.008044430986046791	0.014935163781046867	0.00953215267509222	0.00619978504255414	-0.004475492984056473	0.008088272996246815	0.006578521337360144	0.0020609854254871607	0.026960652321577072	-0.001609142986126244	0.005564659368246794	0.008831235580146313	-0.006658436264842749	-0.0030859080143272877	-0.007383810821920633	0.01385574322193861	-0.005961911752820015	0.01566380262374878	0.0010954511817544699	0.009015114977955818	0.022042037919163704	-0.020989056676626205	-0.009213335812091827	0.010824942961335182	-0.0167144276201725	-0.010967510752379894	-0.0001734877732815221	0.011904215440154076	0.009541869163513184	0.010993869043886662	-0.003684959840029478	-0.0038568107411265373	0.0026461686939001083	-0.023143399506807327	-0.009286402724683285	0.008085810579359531	0.0005833333707414567	-0.0031221245881170034	0.017929673194885254	-0.009126005694270134	-0.010215132497251034	0.0027508523780852556	0.0006758672534488142	0.007110042963176966	0.0025712265633046627	-0.00619457708671689	0.011690876446664333	-0.1454491764307022	-0.013781667686998844	0.002438604598864913	0.017531631514430046	-0.005808930844068527	0.0002503272262401879	0.009469587355852127	-0.002319786697626114	0.0031233145855367184	-0.013360835611820221	0.010114891454577446	-0.005275394301861525	0.010343003086745739	0.009849736467003822	-0.022429730743169785	0.00550816161558032	-0.007203855086117983	-0.00747121125459671	0.007335137575864792	-0.009684414602816105	-0.0033178916200995445	0.0016549815190955997	-0.22190381586551666	0.001138427178375423	0.007152701262384653	-0.00776557344943285	-0.00895347073674202	0.004914391785860062	0.008229692466557026	-0.009484982118010521	-0.012873195111751556	-0.005948313977569342	0.010950464755296707	0.0024444488808512688	-0.0011627005878835917	0.0005944331642240286	-0.003595128655433655	0.018165571615099907	0.0016024435171857476	0.01651834510266781	-0.010512357577681541	-0.0039184074848890305	0.01104868482798338	-0.007963229902088642	0.011153105646371841	-0.0001357384753646329	-0.0009804897708818316	0.0937405526638031	0.028659401461482048	0.0010959598002955317	0.009916339069604874	0.0011263382621109486	0.009246405214071274	0.0030970361549407244	0.013098467141389847	-0.004205203149467707	0.021301941946148872	-0.0032128288876265287	-0.013749510049819946	0.014678293839097023	0.009475848637521267	-0.009632360190153122	-0.0008208109647966921	-0.001964563736692071	-0.005946024786680937	0.004103802144527435	-0.010720519348978996	0.0014532685745507479	-0.006862412206828594	-0.00941270962357521	0.009734123013913631	0.006275742780417204	0.007348673418164253	0.016521954908967018	-0.014693004079163074	0.007156919222325087	-0.037508364766836166	-0.016426119953393936	0.02011503465473652	-0.003758985549211502	0.0056193238124251366	0.0065955170430243015	0.0162623580545187	-0.0015002412255853415	-0.015009571798145771	0.004257866647094488	0.008382970467209816	-0.0038244877941906452	0.013389326632022858	-0.005230769980698824	-0.004107616376131773	-0.0008616328123025596	0.01988464780151844	-0.009525573812425137	0.01203056052327156	0.0014100595144554973	0.01634165085852146	0.023688098415732384	0.009807053953409195	0.014087745919823647	-0.011083338409662247	-0.004376317840069532	0.006847291719168425	0.0009845496388152242	0.0025398279540240765	-0.016197947785258293	0.0017319084145128727	0.004016953986138105	0.008324899710714817	0.004927538335323334	0.013838440179824829	0.014055740088224411	-0.005952243693172932	0.0116849634796381	0.0010839562164619565	0.01148215588182211	0.0067212232388556	-0.03209279477596283	-0.0031045484356582165	-0.01899505965411663	0.10184062272310257	-0.022076694294810295	-0.0018709147116169333	-0.0042150127701461315	-0.01558384858071804	0.0017160295974463224	0.0034046857617795467	-0.02041773498058319	0.006086780223995447	0.009469732642173767	0.0009146414813585579	-0.0015973936533555388	0.004823129624128342	0.01028133649379015	-0.016294121742248535	-0.0015240884386003017	0.015240230597555637	0.008173027075827122	-0.013426527380943298	-0.008237169124186039	6.155903975013644e-05	-0.024007920175790787	-0.004800481256097555	0.0025753676891326904	0.013039938174188137	0.011830402538180351	0.01741187460720539	0.008654394187033176	-0.00297522428445518	0.00619211420416832	0.006287876516580582	-0.004735712893307209	-0.0012563348282128572	0.009200545027852058	0.009757520630955696	-0.010047787800431252	0.0019042216008529067	0.0020659693982452154	0.004082885105162859	-0.0024312662426382303	0.013837626203894615	0.0019821752794086933	0.021671012043952942	0.005504366476088762	-0.0011926416773349047	0.013723309151828289	-0.012340224348008633	0.01071927510201931	-0.010927609167993069	-0.00392357399687171	-0.01647670567035675	-0.004369040951132774	0.009292429313063622	-0.007064021658152342	0.014477049000561237	-0.006784174591302872	0.007474726065993309	0.03413407504558563	-0.0026434333994984627	-0.0032186834141612053	-0.003053720574826002	0.002614294644445181	-0.014187286607921124	-0.005447686184197664	-0.00024390309408772737	-0.018193336203694344	-0.0023891080636531115	0.008652610704302788	0.00025612246827222407	-0.015599595382809639	-0.0011953929206356406	0.00825489591807127	0.017209600657224655	-0.01331518217921257	-0.023974530398845673	-0.005813713651150465	-0.005761590786278248	0.0018979591550305486	-0.016980189830064774	-0.22506368160247803	-0.6716540455818176	-0.015062005259096622	-0.010687223635613918	-0.008898320607841015	0.021103914827108383	-0.006397897377610207	0.007366363424807787	0.006613896228373051	0.014177144505083561	0.014438802376389503	0.01396145485341549	0.005187224596738815	-0.0189699437469244	-0.012551234103739262	-0.02040977217257023	-0.003913921769708395	0.01934203691780567	-0.00750793656334281	-0.02115497924387455	0.007422265131026506	-0.025708742439746857	-0.00865076296031475	-0.0030279115308076143	0.007708818186074495	0.0021047834306955338	0.005198571365326643	-0.006308244541287422	0.013480572029948235	0.004342940635979176	0.014335853978991508	-0.007772901561111212	0.00468929810449481	0.002201119903475046	-0.005341113079339266	0.00016729248454794288	-0.003208607668057084	0.021471038460731506	-0.01233191229403019	0.00915556214749813	0.0013191815232858062	0.004084000363945961	0.013287651352584362	0.004029026720672846	0.005807060748338699	0.007077094633132219	-0.007937167771160603	0.01560255791991949	0.01855161227285862	-0.0075821042992174625	-0.012737663462758064	0.001606036676093936	0.003978300374001265	-0.00460767699405551	0.0011578334961086512	0.01293851062655449	0.00800828542560339	0.015730353072285652	-0.012316925451159477	0.016671381890773773	-0.005864112637937069	-8.858300861902535e-05	0.012291030958294868	-0.006934276316314936	0.018326064571738243	0.008930767886340618	-0.0009050393127836287	0.007289499510079622	0.0016022822819650173	0.018205273896455765	0.01336303073912859	0.013250711373984814	-0.005950148683041334	0.010598518885672092	0.004825917072594166	-0.011291487142443657	-0.007093864493072033	0.009836751036345959	0.006695103365927935	0.004832806997001171	0.004736453760415316	-0.0001668231561779976	-0.012124459259212017	0.010395959950983524	0.006716690491884947	0.003877233946695924	-0.0027127654757350683	-0.01566889137029648	-0.01506541483104229	-0.003735763719305396	-0.0074966889806091785	0.007703282404690981	-0.022929396480321884	0.010414903052151203	-0.007791388779878616	0.024035049602389336	-0.01814635656774044	-0.0003455894475337118	-0.00967371091246605	0.00496567552909255	-0.003986577969044447	-0.007624787278473377	-0.0064915078692138195	-0.007098175585269928	0.002518648514524102	0.019375892356038094	-0.015562859363853931	-0.016990739852190018	0.009278079494833946	0.02139272913336754	0.02021286077797413	-0.0056195808574557304	0.0025894546415656805	0.012590416707098484	-0.0048351651057600975	0.0001997114159166813	0.002316519385203719	-0.003915858455002308	-0.008338382467627525	-0.011329559609293938	0.016062289476394653	-0.005771747324615717	-0.018539290875196457	-0.0026906148996204138	-0.008501742035150528	-0.015973417088389397	-0.01986231654882431	0.0028401960153132677	0.013578428886830807	-0.0022064645309001207	-0.014096061699092388	0.0005873113987036049	-0.003043053438887	0.008917725645005703	0.006284451112151146	0.0061629763804376125	0.007666361052542925	0.0048421951942145824	-0.01952057145535946	0.005559405777603388	0.004824057221412659	-0.00799421314150095	0.00019569910364225507	-0.008361616171896458	-0.02828659676015377	0.01663750782608986	0.01744987815618515	0.006102954503148794	-0.01145204994827509	0.007266822271049023	-0.0004115347983315587	0.017283977940678596	0.019586311653256416	0.00139834254514426	-0.005611874163150787	0.004464609548449516	0.01740732230246067	-0.014583365991711617	-0.006572980899363756	0.008102179504930973	-0.005862272810190916	0.022412937134504318	-0.002342554274946451	0.0021400710102170706	0.015379512682557106	-0.006557755172252655	0.013941655866801739	-0.01862352155148983	0.0033040118869394064	0.004439021926373243	0.004373577423393726	0.04215376824140549	0.02393500879406929	-0.010602043941617012	0.007406672462821007	-0.010180721059441566	-0.019850241020321846	0.010638708248734474	-0.0016551214503124356	0.0350017175078392	-0.007812805473804474	0.006155995186418295	-0.016391988843679428	0.008921969681978226	-0.004790742881596088	-0.014989514835178852	0.0023904903791844845	0.019749293103814125	-0.02305644191801548	0.010112953372299671	0.0019214190542697906	0.010984279215335846	-0.004175403621047735	0.004498750437051058	-0.009069052524864674	0.015592575073242188	0.00750146247446537	0.005164574831724167	0.012083095498383045	-0.00517025962471962	-0.026268381625413895	-0.0009439631248824298	-0.016049372032284737	-0.008022522553801537	0.004472555126994848	0.0003341297269798815	-0.01547834649682045	0.010859476402401924	-0.01476496085524559	-0.0013771140947937965	-0.005617364775389433	0.005352118518203497	-0.006252084858715534	0.0009871904039755464	-0.0060013290494680405	0.01099699828773737	0.014021162874996662	-0.0075153205543756485	0.003817167365923524	0.009205488488078117	0.0030960359144955873	0.00199460843577981	0.021469751372933388	-0.0028454859275370836	-0.0026234276592731476	-0.0004081904189661145	-0.0033338703215122223	-0.016349932178854942	-0.006154126953333616	0.01452921237796545	-0.014498953707516193	0.008487842977046967	0.009427933022379875	-0.009979414753615856	0.02353876270353794	0.0018774186028167605	-0.008670362643897533	0.015711722895503044	-0.024179380387067795	0.006188367493450642	-0.008369438350200653	0.006858697161078453	-0.007775279227644205	-0.006831720005720854	-0.01023600623011589	0.0030667311511933804	0.012808931060135365	0.01860480010509491	-0.01324669923633337	-0.0031401508022099733	-0.011135643348097801	0.0013014895375818014	-0.0016675353981554508	-0.039455097168684006	-0.00045327766565606	0.0025861794129014015	0.015690790489315987	-0.017267698422074318	0.009120570495724678	0.014124703593552113	0.010345653630793095	-0.009104828350245953	0.003698743414133787	0.006366662681102753	0.00037150050047785044	-0.005914368666708469	0.0043878392316401005	0.010695815086364746	0.01681382767856121	0.01765427365899086	-0.0028341442812234163	0.012092528864741325	0.011138872243463993	0.015753882005810738	-0.0003936908033210784	0.009313954040408134	-0.004483808297663927	0.00828101858496666	0.008871511556208134	0.02983327955007553	-0.023231294006109238	-0.006788634229451418	-0.01686115562915802	-0.022054346278309822	0.004198440350592136	-0.008275458589196205	0.016983898356556892	-0.00837803166359663	-0.006501918192952871	0.015485805459320545	-0.0035729454830288887	-0.0010149333393201232	0.00439993292093277	0.007736941799521446	0.004539609421044588	-0.0004281861474737525	0.009394814260303974	0.008414562791585922	0.0074632493779063225	-0.005975824780762196	-0.0024158849846571684	0.012633681297302246	-0.013571768999099731	6.454033427871764e-05	0.0043805669993162155	-0.00525189284235239	-0.001104247523471713	0.0232259389013052	0.009391088038682938	0.01921842433512211	-0.002178599825128913	-0.006619710475206375	-0.011292885057628155	-0.003772672498598695	0.007142366375774145	0.003985792864114046	-0.005559719167649746	0.004184065852314234	0.015315436758100986	0.01076859887689352	-0.006367966532707214	-0.0057714940048754215	0.0035358609165996313	-0.011701647192239761	-0.0014081996632739902	0.0445135161280632	0.0021678567864000797	0.010330075398087502	0.020912500098347664	-0.005656157620251179	0.003626850200816989	-0.016688615083694458	-0.005497126840054989	0.009369079023599625	0.023759640753269196	0.011967368423938751	-0.06718812137842178	-0.0002457338268868625	0.0005846917047165334	-0.005936351604759693	-0.012172631919384003	0.014425507746636868	-0.013639082200825214	-0.012708062306046486	0.02199077419936657	-0.08974876254796982	-0.0039103953167796135	0.005310559645295143	-0.009085720404982567	-0.00972165446728468	-0.003343959106132388	-0.006578941363841295	0.015103111974895	-0.0013012377312406898	0.00533692492172122	0.010303797200322151	0.007263071835041046	0.004936527460813522	-0.00890620332211256	-0.002985468367114663	-0.0052063316106796265	-0.017573824152350426	-0.01708225905895233	-0.013628344051539898	0.011478304862976074	0.010766413994133472	0.017772773280739784	0.005266724620014429	-0.01095260214060545	0.010800423100590706	0.011399860493838787	0.0005856147618032992	-0.01799835078418255	-0.009491208009421825	0.011590384878218174	0.007945574820041656	0.014067483134567738	0.005535518284887075	0.00759345106780529	-0.004147757310420275	0.02469557151198387	-0.011019833385944366	0.004390387795865536	0.010158141143620014	0.01961079239845276	0.03274582326412201	-0.006145655643194914	0.01817929744720459	0.0036171339452266693	0.004993035923689604	-0.008086069487035275	0.005080831702798605	-0.5730282068252563	0.005929283797740936	0.00933736190199852	-0.006026546936482191	0.018229810521006584	0.003991296049207449	-0.00028833828400820494	0.0019213089253753424	0.01560171041637659	0.005192977841943502	0.0025828806683421135	0.002328223781660199	0.005104867275804281	-0.006912115029990673	-0.01890750415623188	-0.00912924762815237	-0.017128992825746536	-0.007756741251796484	0.008369996212422848	-0.008297505788505077	-0.00828360952436924	-0.015722036361694336	-0.02017059177160263	0.0030379951931536198	0.030359381809830666	-0.008661073632538319	0.004401569254696369	-0.0021206215023994446	-0.0443151518702507	0.0017898196820169687	-0.020436126738786697	-0.006989108864217997	-0.014359318651258945	-0.008514145389199257	0.0010599875822663307	0.013347209431231022	0.013632023707032204	0.009488901123404503	0.0028951300773769617	-0.005596741568297148	-0.01274778600782156	0.01078324019908905	0.002026354195550084	0.01880849152803421	0.005208152346313	0.012875035405158997	0.002660438884049654	-0.009315241128206253	0.01194768026471138	-0.006089815869927406	0.013524603098630905	-0.009426036849617958	-0.010576066561043262	-0.018220797181129456	0.014480680227279663	-0.010719971731305122	-0.0018925792537629604	-0.01346137560904026	0.010081775486469269	0.01878080703318119	0.0018385115545243025
XP_015776371.1	0.005687697324901819	-0.0065995436161756516	-0.01057283952832222	-0.009687390178442001	0.0008437085780315101	-0.0006268733413890004	0.0024176654405891895	-0.005887995008379221	-0.0027744632679969072	0.016616972163319588	-0.017535986378788948	0.0014769954141229391	0.005290779750794172	-0.005517648067325354	0.0020010597072541714	0.000929789268411696	0.011148933321237564	-0.0030942910816520452	-0.005022522062063217	0.006340636406093836	-0.009790774434804916	0.0036062621511518955	-0.003461431246250868	0.0020300752948969603	0.00464113662019372	0.03260120376944542	0.00753400195389986	-0.002591380849480629	0.010013808496296406	0.0036816145293414593	0.003307380946353078	-0.0053613921627402306	-0.005923443473875523	0.0014367937110364437	0.012786646373569965	-0.010567465797066689	0.00920515414327383	-0.0037723693531006575	-0.001976744970306754	-0.006959127727895975	0.009567531757056713	-0.004685799591243267	-0.010094676166772842	0.007047442253679037	-0.0012556174769997597	0.002169344574213028	0.001156786223873496	0.012261220254004002	-0.008286339230835438	-0.018113670870661736	-0.00856068916618824	0.002532190876081586	-0.006624588742852211	-0.004999745637178421	-0.00013815725105814636	-0.004681188613176346	-0.006551683880388737	-0.007343111094087362	-0.0006365000735968351	0.006434897892177105	0.01418779231607914	0.0067259869538247585	-0.0014971103519201279	0.00037907695514149964	0.006524542812258005	0.0032933519687503576	0.007132295984774828	0.004377123899757862	-0.011202839203178883	0.0073419902473688126	0.0014384761452674866	0.0011910222237929702	0.010461999103426933	0.010893394239246845	0.01143178716301918	0.002173620043322444	0.0008713093702681363	-0.0029905326664447784	-0.0007402531336992979	-0.0057704211212694645	0.009209987707436085	0.00600048154592514	-0.0032432153820991516	-0.005941323004662991	0.016321802511811256	0.0016567627899348736	0.0060998061671853065	0.004699580371379852	-0.016986118629574776	0.0024104637559503317	-0.003752295859158039	-0.0062986561097204685	-0.001941132009960711	-0.0010255892993882298	0.0038053884636610746	-0.003849746659398079	8.605385664850473e-05	-0.02328523062169552	0.0031075209844857454	-0.009004062041640282	-0.0033803856931626797	0.007682119496166706	-0.0010832385160028934	-0.0037668603472411633	0.0039004425052553415	-0.0012137216981500387	-0.008212502114474773	-0.01645648665726185	-0.014905695803463459	0.005805569235235453	0.0065076155588030815	-0.004680301062762737	-0.0033398086670786142	0.00010483675578143448	0.01804390549659729	-0.0021244825329631567	-0.008266887627542019	0.00886497925966978	0.0010962728410959244	-0.013495362363755703	-0.016794981434941292	0.0017790613928809762	0.0023604179732501507	-0.007846128195524216	0.008853837847709656	-0.0016777835553511977	-0.009082471951842308	-0.002485227771103382	-9.8251664894633e-05	-0.001471828087233007	-1.5388723113574088e-05	0.01059711817651987	-0.006043470464646816	-0.0032746470533311367	0.0016940525965765119	-0.0030313567258417606	0.000414349022321403	0.0024620220065116882	0.004868372343480587	-0.010112964548170567	-0.0047631035558879375	-0.010906207375228405	0.004892428871244192	0.002046734793111682	-0.0034993740264326334	0.004516333341598511	0.004776483867317438	0.008392171002924442	0.0005803763633593917	0.0081464359536767	0.02060558646917343	-0.006694176699966192	-0.0004107655258849263	0.022370675578713417	0.001322427298873663	0.0014469736488536	0.0014099905965849757	9.075792331714183e-05	-0.0031705705914646387	-0.003625371726229787	0.001964240800589323	-0.012041226960718632	-0.009716124273836613	-0.0027039379347115755	0.008292576298117638	-0.010294205509126186	0.00015980505850166082	-0.005160941742360592	0.008521978743374348	0.011264088563621044	0.008087895810604095	-0.00532788410782814	-0.00047341000754386187	0.0010312380036339164	0.005183321423828602	0.008862214162945747	0.0030510893557220697	0.0016987599665299058	0.0019172750180587173	0.003579665208235383	-0.008180859498679638	-0.009203953668475151	0.011522282846271992	-0.002730606822296977	-0.0021548133809119463	0.0029274304397404194	-0.002578269923105836	0.004329621326178312	-0.01327042281627655	-0.0012875099200755358	0.011681974865496159	0.003683348884806037	0.005217583384364843	0.006211732514202595	-0.007725382223725319	-0.0013912816066294909	0.007790262810885906	0.006772106513381004	-0.0010522083612158895	0.005928648170083761	-0.0075449557043612	0.008307527750730515	0.0035710895899683237	0.011962151154875755	0.005412743426859379	0.0022363667376339436	0.007226818706840277	0.0028110044077038765	0.008410036563873291	-0.0031254985369741917	0.007291208021342754	-0.002489538164809346	0.019093990325927734	-0.011270147748291492	-0.010780387558043003	0.002013170626014471	-0.002033383585512638	0.004529137630015612	0.003561134450137615	0.0004910376737825572	-0.005922175478190184	-0.004225975833833218	-0.010659093968570232	0.01460107509046793	0.009504691697657108	-0.004130672197788954	0.004198262467980385	0.0003105241630692035	0.0016223693965002894	0.001729469164274633	0.004968039225786924	0.0020042925607413054	0.0019575576297938824	-0.008823109790682793	0.0067163072526454926	0.004707966931164265	0.013301437720656395	0.005199817940592766	-0.007101704366505146	0.0034804765600711107	-0.0040552872233092785	0.0003786860324908048	9.084797966352198e-06	0.0014873318141326308	0.010121441446244717	0.0028624588157981634	-0.00391252338886261	0.0033868595492094755	-0.0029129988979548216	0.005799516569823027	-0.005510135553777218	0.0035700469743460417	-0.003568649524822831	-0.005038862116634846	-0.0038002142682671547	-0.0037162932567298412	-0.0001231988426297903	-0.004440698307007551	0.0015359669923782349	0.001857628463767469	-0.0067031849175691605	0.007995045743882656	0.0009190017590299249	-0.005373241379857063	0.006608780939131975	0.0072761294431984425	-0.0019364496693015099	-0.00039043373544700444	0.002546552335843444	-0.010728690773248672	0.008714888244867325	0.005866438150405884	0.01498729269951582	-0.007098770700395107	0.0033648612443357706	-0.002488452475517988	0.0023119470570236444	-0.014507904648780823	0.0076930406503379345	0.005532789044082165	0.006623085122555494	-0.006501964759081602	-0.006766505539417267	0.013997871428728104	-0.017890917137265205	0.013487987220287323	0.009299550205469131	0.0031440071761608124	-0.0032866394612938166	0.005204850807785988	0.003560239216312766	0.011498689651489258	-0.009140110574662685	0.012898254208266735	0.0040184510871768	-0.011396046727895737	-0.000949679350014776	-0.003421866102144122	0.01125398650765419	-0.009396860376000404	-0.00025825598277151585	0.027582548558712006	0.00048329748096875846	0.01379451248794794	0.013494211249053478	0.0008180072181858122	-0.0037940817419439554	0.004170095548033714	0.0031466116197407246	0.0019832272082567215	0.004754130262881517	0.0045700352638959885	-0.0002516080276109278	0.004040801431983709	-0.0069075096398591995	0.010531315580010414	0.01022159494459629	0.0022242118138819933	0.003980312030762434	-0.009907791391015053	0.004371181130409241	0.0022031015250831842	0.008017224259674549	-0.0113508440554142	-0.0027115612756460905	-0.00177960772998631	-0.005352076608687639	0.006086284294724464	-0.0002280899352626875	-0.016353901475667953	0.004131193272769451	-0.0033795104827731848	-0.006816907785832882	0.007904180325567722	-0.0715978816151619	0.0053618173114955425	0.0009116035071201622	-0.004010229837149382	-0.0030291914008557796	0.00021948464564047754	-0.002839891705662012	0.0002949401969090104	0.0025065219961106777	-0.0028547635301947594	-0.003803393105044961	0.002505074255168438	0.006369332782924175	-0.012426283210515976	-0.0059092361479997635	0.0012940522283315659	0.0036502100992947817	0.0065672388300299644	-0.0024846442975103855	0.009693704545497894	0.0008811601437628269	-0.003597027389332652	-0.00853682029992342	-0.0010218071984127164	-0.008677312172949314	0.0007546319393441081	-0.0023603271692991257	0.012235913425683975	0.012801161967217922	0.004219477530568838	-0.001811060938052833	-0.002416652161628008	-0.007756333332508802	-0.0042373850010335445	0.004093226511031389	-0.0024947074707597494	0.004855156410485506	0.008906494826078415	-0.0015024564927443862	0.014857713133096695	0.010087937116622925	0.00877959094941616	0.007527871988713741	0.005068547558039427	0.003606781829148531	0.014363512396812439	-0.004668572451919317	0.011745541356503963	0.001706881681457162	0.005213570315390825	0.0031727179884910583	0.01865478791296482	-0.00436871824786067	0.023257501423358917	0.0057581951841712	0.01056771632283926	0.01686723157763481	0.004631368443369865	0.003385229967534542	-0.004055357072502375	0.009464924223721027	-0.014804640784859657	0.014057097025215626	0.01212158054113388	-0.00374939339235425	0.004524442367255688	0.01585833542048931	-0.002847514348104596	-0.00398746645078063	0.006140635348856449	-0.000872299715410918	0.0040999287739396095	0.0029544513672590256	-0.00015938891738187522	-0.0025315023958683014	0.00514311483129859	-0.0013052693102508783	0.012825695797801018	0.0035810305271297693	0.0014811637811362743	-0.003433738835155964	-0.01100676879286766	-0.007830356247723103	0.007790872361510992	0.00634955707937479	-0.004258213099092245	-0.0005359341157600284	0.00018913282838184386	-0.006983846891671419	-0.005336503032594919	0.00836228672415018	-0.005171885248273611	0.005300987511873245	0.004902287852019072	0.0012422481086105108	-0.01745566725730896	-0.0022615408524870872	0.010880758985877037	-0.02062966115772724	-0.0003310525498818606	0.0020339444745332003	0.007363259792327881	0.002488989382982254	-2.651527574926149e-05	-0.008510165847837925	0.0002939281694125384	0.014489241875708103	-0.001449698698706925	0.004585328046232462	0.007590599823743105	0.0024468437768518925	-0.0025930351112037897	0.010521951131522655	-0.007503442466259003	-0.011256281286478043	0.004701673053205013	0.0029643592424690723	-0.014236290007829666	0.011303304694592953	0.0020867311395704746	0.0008251196122728288	-0.006774236913770437	0.011240764521062374	0.004738060757517815	0.011936252005398273	-0.006501791067421436	0.006136262323707342	0.006074488628655672	0.0015351969050243497	0.003689474891871214	0.008014816790819168	0.0021690705325454473	-0.008265320211648941	0.0012501738965511322	0.013110802508890629	-0.018454452976584435	0.013053342700004578	0.007140409667044878	-0.002534761093556881	0.021037384867668152	0.009959573857486248	-0.011450262740254402	-0.0006054515251889825	0.003512912429869175	-0.006256749853491783	-0.007106493227183819	0.0008134457166306674	0.02143414132297039	0.015037782490253448	-0.0004584880080074072	-0.003777656704187393	0.00931208673864603	-0.014778878539800644	-0.007017717231065035	0.009357706643640995	-0.0005554450326599181	0.004731830209493637	0.006081004627048969	-0.0017850629519671202	-0.00538621423766017	0.0018972059478983283	0.0038220228161662817	-0.008990248665213585	-0.021013448014855385	0.005108557175844908	0.010129197500646114	-0.10853122919797897	0.0037622370291501284	0.0021786370780318975	0.009288869798183441	0.00619902228936553	-0.013173009268939495	0.006825153715908527	0.0035481995437294245	-0.0017882751999422908	0.0005172619130462408	0.006800247821956873	-0.004768512211740017	0.00439327210187912	0.0014005601406097412	-0.001424600719474256	0.0032043270766735077	-0.0026528872549533844	-0.0005752125289291143	0.002011064440011978	0.002306831767782569	0.003350217593833804	0.005442201625555754	-0.1215638816356659	0.005506549496203661	0.0067839897237718105	-0.016793880611658096	-0.0033939534332603216	0.0029122941195964813	-0.004994314629584551	0.0020708574447780848	0.0013525387039408088	-0.005833971314132214	-0.003644767915830016	8.76013291417621e-06	-0.0016414477722719312	0.007834933698177338	-0.006587416399270296	0.014310833998024464	-0.0014343966031447053	0.005384562071412802	0.010651355609297752	-0.008524875156581402	0.0026806455571204424	-0.005092970095574856	-0.0032351971603929996	-0.0021436414681375027	0.014049604535102844	0.08842165023088455	0.026403864845633507	-0.0013160172384232283	0.00150932592805475	-0.00183197355363518	0.0072541506960988045	-0.005560648627579212	0.003833578433841467	0.0020067000295966864	0.026806538924574852	-0.0002794393803924322	-0.0034385393373668194	0.008115994744002819	0.008669277653098106	-0.00808306597173214	0.005523091647773981	0.0010956322075799108	0.004272477235645056	0.005956125911325216	0.0011860746890306473	0.0038434758316725492	-0.0026945569552481174	-0.005797741003334522	0.01499735563993454	0.00154495844617486	-0.0009542538900859654	0.013010518625378609	-0.012762561440467834	-0.00258325575850904	-0.007559766992926598	0.000426650105509907	0.014782101847231388	-0.006109732668846846	0.005425471346825361	0.0024799706880003214	0.009256836026906967	0.005893891677260399	-0.010205946862697601	-0.01060026790946722	-0.007270431611686945	0.0021386416628956795	0.010360035113990307	0.003009301610291004	-0.009094738401472569	-0.006540933158248663	0.00036088720662519336	-0.003001375123858452	-0.0008984067826531827	-0.002130724722519517	0.010526922531425953	0.003301865654066205	-0.0049790008924901485	0.0039220526814460754	0.007079519331455231	-0.0036286271642893553	0.0098580839112401	0.00828116200864315	0.008410950191318989	-0.0067997160367667675	-0.0031303262803703547	0.0013307369081303477	-0.016773179173469543	0.006777619011700153	0.007028270047158003	0.0038727647624909878	-0.008285446092486382	-0.0034729279577732086	0.002532878192141652	0.015574511140584946	0.002550489967688918	-0.009815216064453125	-0.01725228875875473	-0.007839341647922993	0.12338554859161377	-0.012842077761888504	-0.004974369890987873	0.0074605983681976795	-0.012091574259102345	0.0033587447833269835	0.0044522820971906185	-0.014930597506463528	8.95951670827344e-05	0.00034234789200127125	0.00160119473002851	-0.004353437107056379	-0.002796662040054798	0.002682543359696865	0.005257107317447662	-0.005138210952281952	0.016359560191631317	-0.006987054366618395	-0.002511241938918829	-0.010232605040073395	-0.001737796701490879	-0.012617120519280434	0.0010446301894262433	0.0028010564856231213	-0.0003240876831114292	0.013021722435951233	0.01715357042849064	0.004268319346010685	-0.0005867847939953208	0.005094290245324373	0.0070325820706784725	-0.009319426491856575	0.0032228906638920307	0.011311471462249756	-0.008336534723639488	-0.005297016818076372	0.005985133349895477	-0.0035324683412909508	0.0013601463288068771	0.002133013214915991	0.010397033765912056	-0.005088907666504383	0.021249331533908844	0.014884787611663342	-0.0027704895474016666	-0.0025065350346267223	-0.011726069264113903	0.003561320947483182	-0.013696473091840744	0.0070886085741221905	-0.00486322958022356	-0.003600519150495529	0.011377551592886448	-0.011495338752865791	0.005473027005791664	-0.002090663416311145	0.0029916020575910807	0.06138782203197479	-0.0027691940777003765	-0.004882510751485825	-0.003919132519513369	0.00381685933098197	-0.007923785597085953	-0.0003647804551292211	0.00444206316024065	-0.006235382054001093	-0.0012250395957380533	0.01647777482867241	0.0031932303681969643	-0.0024767012801021338	-0.006448662839829922	-0.004163813311606646	-0.007155685219913721	-0.004176192916929722	-0.012341724708676338	0.0019160667434334755	0.00040772746433503926	0.0009022012818604708	-0.007599502801895142	-0.19063623249530792	-0.610802412033081	-0.009097141213715076	-0.002504897303879261	0.0019818167202174664	-0.004495858680456877	-0.0033038172405213118	0.018041126430034637	-0.0022029306273907423	-0.0005827529239468277	-0.0045044319704174995	0.0029364863876253366	-0.011555803939700127	-0.00881202518939972	-0.0038977256044745445	-0.0018110711826011539	-0.005156108643859625	0.019826941192150116	0.003554275957867503	-0.008376521058380604	0.011006513610482216	-0.00835029873996973	-0.010194964706897736	0.0010199325624853373	-0.002758530667051673	-0.002934552263468504	-0.0014117809478193521	0.009391171857714653	0.003299666102975607	-0.011318810284137726	0.01286186370998621	-0.011722542345523834	0.011651444248855114	-0.002347123809158802	0.0019097919575870037	0.0037876118440181017	-0.013984658755362034	0.016596287488937378	-0.008464500308036804	0.008780557662248611	-0.009573259390890598	0.011664372868835926	0.018917545676231384	-0.008163818158209324	-0.008606567047536373	0.006217150948941708	-0.004662415944039822	0.0032429129350930452	0.014116283506155014	0.00208093854598701	-0.0034616603516042233	0.008646847680211067	-0.006376670207828283	-0.0124327028170228	-0.010204334743320942	0.008770430460572243	0.0015007889596745372	0.013525299727916718	-0.002025734633207321	0.01995662972331047	-0.0008269133395515382	-0.0021245561074465513	0.0023113663773983717	-0.003735943930223584	0.008396103046834469	-0.002760083880275488	-0.0020878147333860397	0.005213193595409393	0.008890112861990929	0.009044240228831768	0.009937877766788006	0.0056415521539747715	-0.008682863786816597	0.0033770366571843624	0.00023104420688468963	-0.009919611737132072	-0.007844103500247002	0.01318332739174366	0.010211599990725517	-0.0024446158204227686	0.0030843461863696575	0.006521859206259251	-0.0025463986676186323	0.004603387322276831	0.0036675960291177034	0.0084651755169034	0.0008310045814141631	-0.011159022338688374	-0.008589426055550575	-0.003894260386005044	-0.0003816600947175175	0.010637682862579823	-0.01486466359347105	0.006202340591698885	-0.0031266086734831333	0.00864400900900364	-0.026107337325811386	-0.000509967387188226	-0.0061968849040567875	-0.003433243604376912	-0.009695829823613167	-0.008597291074693203	0.0013645109720528126	0.0015312096802517772	5.472239718073979e-05	-0.0007667822646908462	-0.005456480197608471	-0.013423615135252476	0.0037265114951878786	0.016621120274066925	-0.0005069727776572108	-0.0036328297574073076	0.000704626610968262	0.009217096492648125	0.0010684524895623326	-0.00040032973629422486	0.0036144452169537544	0.004359029233455658	-0.0038720418233424425	-0.00550844194367528	0.01098640076816082	-0.012130063958466053	-0.008762076497077942	-0.0017935355426743627	-0.00408559013158083	0.0034489633981138468	-0.00933830440044403	0.0006544702919200063	0.004155382048338652	-0.009325140155851841	-0.013789787888526917	0.0038426031824201345	0.007329552434384823	0.003055639797821641	-0.0006149713881313801	-0.008609822019934654	0.012786351144313812	0.004963143728673458	-0.009840913116931915	0.006384578533470631	0.003952973987907171	0.009979333728551865	-0.004534632433205843	-0.005485078319907188	-0.0017816672334447503	0.01064123772084713	0.004349629860371351	0.0013089117128401995	0.003840098390355706	-0.004550507757812738	-0.00506798829883337	-0.002677564974874258	0.01085994765162468	-0.00034489110112190247	-0.015057867392897606	0.002610849915072322	0.016302213072776794	2.512443097657524e-05	-0.006785898469388485	0.005614818539470434	-0.008583344519138336	0.016412759199738503	-0.016636192798614502	-0.0035591325722634792	0.010179173201322556	-0.0023325264919549227	0.006462485529482365	-0.019412122666835785	0.011308849789202213	-0.006467545870691538	-0.007202191278338432	0.0301645640283823	0.02505410648882389	-0.00629984587430954	-0.010099846869707108	-0.0029623713344335556	-0.0048014819622039795	0.0112449387088418	-0.002957077231258154	0.0041961283423006535	-0.0013528186827898026	0.0010262976866215467	-0.004655295517295599	0.0017422219971194863	0.0015994224231690168	-0.009103924036026001	0.0012505133636295795	0.010726533830165863	-0.025580771267414093	-0.006146834697574377	-0.006991755682975054	0.010094822384417057	0.003929548431187868	0.009196088649332523	0.003416723571717739	0.014888095669448376	0.009122435003519058	0.006537575740367174	0.0010119895450770855	-0.00959240272641182	-0.011656565591692924	0.004451344721019268	-0.01773926243185997	0.0017159628914669156	0.0029525880236178637	-0.002555488608777523	-0.0007280425052158535	0.001023240271024406	-0.002612219424918294	-0.003300700569525361	-0.001842425437644124	-0.0027171999681741	-0.007443766575306654	0.0054171583615243435	-0.0017411764711141586	0.005762111395597458	0.010278119705617428	0.0017737379530444741	0.005457742139697075	-0.001396314357407391	0.015023428946733475	-0.01620514877140522	0.002848892705515027	0.0016668331809341908	-0.0021898148115724325	-0.005690584424883127	0.007764406502246857	-0.018130814656615257	-0.0009286783169955015	0.009137946180999279	-0.006689191795885563	0.006488816812634468	0.021308643743395805	-0.0088840676471591	0.00853796023875475	0.00693877786397934	0.0013346088817343116	0.010220893658697605	-0.010457707569003105	0.004635810852050781	-0.0006310853059403598	-0.001718750107102096	-0.0028999748174101114	0.0034504884388297796	-0.0009979242458939552	-0.005111317615956068	0.006999921053647995	0.010793812572956085	-0.006236372049897909	-0.004596881568431854	-0.009795209392905235	-0.0048849694430828094	0.0015633002622053027	-0.018312042579054832	0.0009023862658068538	0.002433361951261759	0.004986381158232689	0.006043299101293087	0.0037861212622374296	0.013198205269873142	0.006916930433362722	-0.010481986217200756	0.0037345823366194963	0.004889862146228552	0.006560631562024355	-0.01227273978292942	0.01700286753475666	0.013733241707086563	0.006943116430193186	0.0016668944153934717	-0.010233662091195583	0.0009391652420163155	-0.0006144713261164725	0.01066973339766264	-0.0067108566872775555	0.0057584261521697044	-0.00781752448529005	-0.00231323204934597	-0.005244698841124773	0.013654874637722969	-0.006133439019322395	-0.006924503482878208	-0.0006887413910590112	-0.017556356266140938	0.015408864244818687	-0.002973457332700491	0.0037857750430703163	0.00519588403403759	-0.0011426048586145043	0.005934827029705048	0.004381057806313038	0.0013364803744480014	0.00596729526296258	0.00813077762722969	-0.004211959429085255	0.002107887528836727	0.00631706602871418	0.013489427976310253	0.013796061277389526	-0.0017533466452732682	0.008248950354754925	-0.006039835978299379	-0.006811530329287052	-0.0042483811266720295	0.0010610093595460057	0.0003211666480638087	-0.004934850614517927	0.016418226063251495	-0.0022819226142019033	0.013551322743296623	-0.005274049937725067	-0.005650135222822428	-0.006453205365687609	-0.0005496136727742851	0.0023200814612209797	0.000982786645181477	-0.003249138593673706	-0.009926864877343178	0.008931437507271767	0.010372817516326904	-0.008454966358840466	-0.004212833940982819	0.003567965468391776	-0.013300023041665554	-0.00712213758379221	0.018056167289614677	0.0003903978504240513	0.013676348142325878	0.005671064835041761	0.003934503998607397	0.0030935013201087713	-0.003545760177075863	-0.004589848220348358	0.002326091518625617	0.010829849168658257	-9.115638385992497e-05	-0.03839074820280075	-0.000506525975652039	0.009968014433979988	-0.008998159319162369	-0.0004369662783574313	0.009534968994557858	-0.0032269840594381094	0.0008443756378255785	0.013238410465419292	-0.08687157183885574	-0.010469315573573112	0.00228190328925848	-0.00024330636369995773	-0.0003280971141066402	-0.0005652022082358599	-0.0006857331609353423	0.006504828575998545	0.0006261791568249464	-0.002805703319609165	0.0031335512176156044	0.009556354023516178	0.0017224802868440747	-0.0042647868394851685	-0.0073408023454248905	-0.003629902610555291	0.0010510036954656243	-2.434515226923395e-05	-0.005447142757475376	0.005276485811918974	0.010545640252530575	0.005515506025403738	0.004309786017984152	0.0005276917945593596	0.0057647558860480785	0.02539602294564247	-0.009930417872965336	-0.007176441606134176	0.00214972416870296	0.009240125305950642	0.008738972246646881	-0.001465001842007041	-0.004855691455304623	0.0007208600291050971	0.005099333822727203	0.004614564124494791	-0.004485854879021645	0.004860326182097197	0.016369134187698364	0.00023875250190030783	0.020396092906594276	0.008234137669205666	-0.017633767798542976	0.007096873130649328	0.012191727757453918	-0.008724524639546871	-0.00017031027527991682	-0.637161910533905	0.00757939275354147	0.002103181788697839	-0.006284629460424185	0.006443910300731659	-0.011405455879867077	-0.00789864081889391	0.0048268879763782024	0.004106272477656603	-0.005285013001412153	-0.0005003460682928562	0.006229351740330458	0.013999709859490395	8.449156302958727e-05	-0.011298569850623608	-0.011435920372605324	0.0025639906525611877	0.0026547678280621767	0.00043651513988152146	-0.005277581978589296	-0.015714721754193306	-0.003485808614641428	-0.008546371944248676	-0.0006699309451505542	0.021824156865477562	0.0016422703629359603	0.008231788873672485	-0.004187511745840311	-0.04799514263868332	-0.0006659218342974782	-0.010640185326337814	-0.0006026062183082104	-0.006964053492993116	-0.0035084616392850876	-0.006189464125782251	0.005602049641311169	-0.0028002026956528425	0.008579147979617119	0.02478235401213169	0.003828438464552164	-0.02227971702814102	-0.002634119475260377	0.011472592130303383	0.011399174109101295	0.006836368702352047	0.008095946162939072	-0.011547461152076721	0.00637902831658721	0.012418128550052643	-0.0066629089415073395	0.0014503378188237548	0.008416315540671349	-0.001606619916856289	-0.009326939471065998	0.012716206721961498	0.00624044518917799	-0.0009506360511295497	-0.012974784709513187	0.007223248481750488	0.009548148140311241	-0.0034421049058437347
BAN40838.1	0.00521747674793005	0.0028754554223269224	0.0005492786294780672	-0.00328460312448442	0.0010335530387237668	-0.0014476634096354246	0.0017753059510141611	-0.004574746824800968	-0.0039701261557638645	0.006420612800866365	-0.026537464931607246	0.012720275670289993	-0.0038628436159342527	-0.01240450143814087	0.012786253355443478	0.00461084209382534	0.007950184866786003	0.0005636825226247311	-0.013279126957058907	0.010848402976989746	-0.011250199750065804	0.006048654206097126	-0.005472220480442047	0.00659859087318182	-0.0017627887427806854	0.03311453387141228	-0.0012723529944196343	-0.0031343530863523483	0.010738017037510872	0.0024332739412784576	-0.0010051726130768657	-0.018261486664414406	-0.002559480955824256	-6.596228195121512e-05	0.013058164156973362	-0.005335298366844654	0.0034828551579266787	-0.0036757674533873796	0.0047818017192184925	-0.0024817518424242735	0.0026172176003456116	-0.00619015796110034	-0.009208794683218002	0.00580737367272377	0.010804840363562107	0.000997812021523714	-0.01091134175658226	0.0029343608766794205	0.006685894913971424	-0.009516958147287369	-0.011256344616413116	0.002247279044240713	-0.008758150972425938	-0.003559972858056426	-0.009328189305961132	-0.007604741025716066	0.00313376123085618	-0.007576842792332172	-0.0009601199417375028	-0.003943459130823612	0.016066929325461388	0.0014574460219591856	0.00012630702985916287	0.012183898128569126	0.010537147521972656	-0.0008166146581061184	0.015939150005578995	0.005582147743552923	0.011900832876563072	0.0055493563413619995	-0.0036884527653455734	0.0035944057162851095	0.00858172308653593	0.014764737337827682	0.026680683717131615	-0.001915953354910016	-0.0010879711480811238	0.0026976268272846937	0.008110897615551949	-0.02037227526307106	-0.0043972088024020195	0.003403813811019063	0.0005279721226543188	-0.007381482981145382	0.0051634968258440495	-0.0024691615253686905	0.010575156658887863	0.007740227971225977	-0.008469335734844208	-0.006063925102353096	-0.002706984058022499	-0.009101740084588528	-0.0011042933911085129	-0.003014941932633519	0.006274758838117123	-0.003993854857981205	-0.00303544825874269	-0.0038807473611086607	0.004405276384204626	-0.011981293559074402	-0.01128226425498724	-0.0018110396340489388	-0.0030978720169514418	-0.002488710219040513	-0.006608182098716497	0.0009495157282799482	-0.00485628517344594	-0.020819421857595444	-0.007676019333302975	-0.003985329996794462	-0.0070563871413469315	-0.012603327631950378	-0.0046695685014128685	0.005259883590042591	0.007978955283761024	-0.0010083619272336364	0.0014135893434286118	0.0011749692494049668	0.006164539605379105	-0.0038547315634787083	-0.007607052102684975	0.00170319399330765	-0.0013870187103748322	0.006356391124427319	0.00503556476905942	-0.0016626380383968353	-0.007896503433585167	1.884504126792308e-05	-0.010194257833063602	-0.0074568819254636765	-0.005767606198787689	0.0015458136331290007	0.006888615898787975	0.005096671171486378	0.002648217836394906	0.003206436987966299	-0.0059000467881560326	0.0027686546090990305	0.005179181229323149	-0.00847025215625763	0.0036176505964249372	-0.009199986234307289	0.0030939884018152952	0.009808558970689774	-0.014465302228927612	-0.0011738616740331054	0.007877751253545284	0.0030746886041015387	0.0008480080869048834	0.014372573234140873	0.018021395429968834	-0.0046399119310081005	0.006175269838422537	0.01920677162706852	0.007522284518927336	0.001318063703365624	0.008065648376941681	0.0009756393847055733	-0.0045516034588217735	0.008997004479169846	0.005927370861172676	-0.0041662417352199554	-0.01221047155559063	0.004179314244538546	0.0004833754210267216	-0.010310202836990356	-0.006764995865523815	-0.004275287501513958	0.014120533131062984	0.005423946771770716	0.006673173513263464	0.0019062478095293045	-0.0010252140928059816	0.0014639843720942736	0.0083952397108078	0.005040984135121107	0.0017554244259372354	-0.0022661711554974318	0.0015177532332018018	0.010472697205841541	0.00235443701967597	0.0019272994250059128	0.004286290146410465	0.00025618087965995073	-0.008168496191501617	0.006193685345351696	-0.0007888388936407864	0.004598704166710377	-0.01392588671296835	-0.010545999743044376	0.01051636878401041	0.009729430079460144	-0.0010735357645899057	0.011103469878435135	-0.0042324005626142025	0.001091996906325221	0.004966081585735083	0.0014608071651309729	0.007906213402748108	0.00267398520372808	-0.0008301677880808711	0.0034993861336261034	0.0082058971747756	0.016810180619359016	0.006732417736202478	0.007431640289723873	-0.001984142931178212	0.011369481682777405	0.01331301312893629	-0.008485104888677597	-0.0008405542466789484	0.0012444863095879555	0.00572699261829257	-0.0021517123095691204	-0.003428211435675621	-0.007522835861891508	0.0026611345820128918	0.011534524150192738	-0.003663791809231043	0.0011251858668401837	-0.014357786625623703	0.003502674400806427	-0.012224266305565834	0.004220901057124138	0.012043201364576817	-0.0031302552670240402	0.006245901342481375	0.004584248177707195	-0.00718416552990675	-0.00599914463236928	0.0054124100133776665	-0.004232174251228571	0.008042138069868088	-0.00035204761661589146	0.00885085016489029	-0.0017763451905921102	-0.007611410226672888	0.0031353363301604986	-0.0020253341645002365	0.004498448688536882	-0.009206047281622887	0.004404628649353981	0.001157245715148747	-0.007965615019202232	0.013230402022600174	0.004176303278654814	-0.0008605918847024441	0.0018756419885903597	0.001814531278796494	0.010504676029086113	0.006921463180333376	0.0009257523925043643	-0.008841626346111298	-0.00016707881877664477	-0.0017316280864179134	0.0017402058001607656	0.002044837921857834	-0.000603013439103961	-0.0010575142223387957	0.004909841809421778	-0.014128481969237328	0.03794998303055763	-0.006648226175457239	-0.0036583703476935625	0.004607253707945347	0.0030907855834811926	0.0020643207244575024	0.005328614264726639	0.007753081154078245	-0.000286524067632854	0.011145192198455334	0.008761754259467125	0.016959818080067635	-0.008968780748546124	0.003755558282136917	-0.008645874448120594	0.0037085767835378647	-0.008054767735302448	-0.0011356762843206525	-0.0013826183276250958	0.006190697196871042	-0.0093638114631176	0.0016322192968800664	0.00952244084328413	-0.008389267139136791	0.002339427126571536	0.009261063300073147	0.004811802878975868	0.0004216651723254472	0.011811424046754837	0.007691619917750359	0.010754574090242386	-0.015138993039727211	-0.0053740013390779495	-0.0001323869073530659	-0.0016621309332549572	-0.0035933065228164196	-0.0035210729110985994	0.010897721163928509	-0.00761500746011734	0.00743112713098526	0.010478947311639786	0.0006224515964277089	0.018756182864308357	0.01922634243965149	-0.0020248957443982363	-0.005081628914922476	0.004058680031448603	-0.004834972787648439	0.008594697341322899	0.005234203301370144	-0.011386783793568611	-0.005107834003865719	0.0036887116730213165	-0.006487415172159672	-0.003291829489171505	0.007203429471701384	0.0055545903742313385	0.0015805456787347794	-0.009969956241548061	-0.0049502369947731495	-0.003945522475987673	0.010526473633944988	-0.016024157404899597	-0.006590750068426132	-0.007268410176038742	0.000695030961651355	0.006275638937950134	0.004208139609545469	-0.018900185823440552	-0.004626408219337463	0.000907574372831732	0.0006529337842948735	0.004298000130802393	-0.0460059829056263	-0.00726977176964283	0.0038421922363340855	0.0016777896089479327	0.0005334097659215331	0.007862773723900318	0.005481811240315437	0.004450317472219467	0.007480892818421125	-0.0048074182122945786	1.1334622286085505e-05	-0.012247297912836075	0.0014800592325627804	-0.0002202700707130134	-0.013231011107563972	-0.0018507549539208412	-0.00208638166077435	0.0012317305663600564	-0.0011293592397123575	0.01952359266579151	-0.00575796514749527	-0.0044699241407215595	-0.008248234167695045	-0.0023888838477432728	-0.014628620818257332	-0.003206821857020259	0.004969041328877211	0.011421910487115383	0.007685994729399681	0.013876247219741344	-0.01014527678489685	-0.0013908162945881486	-0.013662616722285748	-0.0002764027158264071	0.0015874226810410619	-0.0037950214464217424	0.004057687241584063	0.004044753964990377	-0.0067460788413882256	0.016502665355801582	0.0016213590279221535	-0.0009474765975028276	0.009331660345196724	0.002387317828834057	0.006369318347424269	0.006896481849253178	-0.0064309523440897465	-0.0019238603999838233	-0.002819909481331706	0.01042223908007145	0.010025670751929283	0.015540145337581635	-0.0026678207796067	0.007826088927686214	0.000450257386546582	0.007954038679599762	0.016153356060385704	0.0018462184816598892	-0.007832280360162258	-0.002323038410395384	0.009000372141599655	-0.00410100445151329	0.015261024236679077	0.010078560560941696	3.01522527479392e-06	0.0008891114266589284	0.0033308924175798893	-0.012103973887860775	-0.009016626514494419	0.006479396019130945	0.007888603955507278	0.006042725872248411	0.009642333723604679	0.006315253209322691	0.0017589917406439781	-0.0005543954903259873	-0.0006295400089584291	0.009537617675960064	-0.011453654617071152	-0.00513443211093545	0.0006282276008278131	0.009271991439163685	-0.003410237142816186	0.006387217435985804	0.00041765591595321894	-0.005570374894887209	-5.914641224080697e-05	0.001218253280967474	-0.0028714851941913366	0.0011586603941395879	0.012312779203057289	-0.001802070764824748	0.00415891082957387	0.0059684040024876595	0.007725535426288843	-0.01860927976667881	0.009745607152581215	0.004371930379420519	-0.01983295939862728	-0.0065186223946511745	0.005621785763651133	0.008860155940055847	-0.012390968389809132	0.0038524367846548557	-0.00036100888974033296	-0.002782500581815839	0.016810718923807144	0.0013662104029208422	0.007196273189038038	0.001866288366727531	0.01239453349262476	-0.0016335757682099938	0.015544605441391468	0.0129003394395113	-0.013744625262916088	0.003322566393762827	-0.005295141134411097	-0.007983178831636906	0.015107213519513607	0.0012345330324023962	0.007787496782839298	-0.004563861060887575	0.004193790722638369	0.005150545854121447	-0.0027293344028294086	0.006002606824040413	0.010753518901765347	0.004881648812443018	-0.005987509619444609	0.008948228321969509	0.002224221359938383	-0.006713458336889744	-0.012724136933684349	-0.0031714062206447124	-0.001581667922437191	-0.0123805683106184	0.01191882323473692	-0.0010237247915938497	0.009224982932209969	0.011616579256951809	0.0030489731580018997	-0.005003760568797588	0.0005673415143974125	0.0005863739061169326	-0.00040665367851033807	-0.00021748346625827253	0.005675976630300283	0.013515875674784184	0.006929653696715832	0.009265501983463764	-0.0064099933952093124	0.0039736488834023476	-0.01899130456149578	-0.003907450474798679	0.009839619509875774	0.0005888415034860373	0.007828164845705032	0.002727807965129614	-0.0024577572476118803	0.002747109392657876	0.006702194921672344	-0.0005978074041195214	-0.004147314000874758	-0.011112164705991745	0.010937036946415901	0.00762587646022439	-0.15728828310966492	0.003306201659142971	-0.006703142076730728	0.004880930297076702	0.008624900132417679	-0.018635183572769165	0.012472482398152351	0.007566848769783974	0.005261268001049757	0.0021878480911254883	0.01216500997543335	0.0022298276890069246	-0.0017818071646615863	0.004276555497199297	-0.005729684140533209	-0.005171149503439665	-0.00747842388227582	0.004663224797695875	0.00507452804595232	0.0008757573668844998	0.0032096439972519875	0.0033667609095573425	0.2378811091184616	0.0036755630280822515	0.004503563512116671	-0.013934340327978134	-0.01011018268764019	0.0005873659974895418	-0.0025216969661414623	0.008654034696519375	0.0007186437724158168	-0.0027544463519006968	0.002872663550078869	-0.0017945190193131566	0.0002470909967087209	0.006829529535025358	-0.0007250203052535653	0.008854875341057777	-0.0014870482264086604	-0.0005790816503576934	0.013095833361148834	-0.005978303495794535	-0.006095875985920429	-0.0048094745725393295	0.005560251418501139	0.010510674677789211	-0.005140799563378096	0.05299849808216095	0.030399691313505173	0.0011078095994889736	0.0013701154384762049	-0.004018707200884819	0.006787556689232588	-0.0014530866174027324	0.00868282001465559	-0.0024855127558112144	0.011167366988956928	0.003373199375346303	-0.0007858499302528799	0.012074005790054798	0.009876110590994358	-0.011709965765476227	-0.0030756639316678047	0.0018904409371316433	-0.0005836743512190878	0.006526078097522259	0.004813381936401129	-0.014230303466320038	0.00642344169318676	0.0005003545084036887	0.012010305188596249	0.0005852757603861392	0.008042171597480774	0.009759066626429558	-0.0054671186953783035	0.0016502980142831802	-0.004054744262248278	0.007167651318013668	0.020448703318834305	-0.00787289533764124	0.006329277064651251	0.002335675759240985	0.00638881279155612	0.0003738250525202602	-0.002993068192154169	-0.007098175119608641	-0.0037113104481250048	-0.012508479878306389	-0.0018585865618661046	0.006195902358740568	-0.005828664172440767	-0.0020354760345071554	0.007486741058528423	-0.003334547858685255	-0.008138975128531456	-0.0021486287005245686	0.004801518749445677	-0.0006165960803627968	-0.007359775714576244	0.011914796195924282	-0.0020455459598451853	-0.003863563761115074	0.014030247926712036	0.002762964926660061	-0.004886350594460964	-0.011642277240753174	-0.007739817723631859	-0.0040219551883637905	-0.007826175540685654	-0.001491133589297533	0.011708999052643776	-0.004407069645822048	0.002108635613694787	0.003478290280327201	0.008838280104100704	0.019011342898011208	0.008725370280444622	-0.012636474333703518	-0.0012528480729088187	-0.002142221201211214	0.17609639465808868	-0.009919176809489727	-0.0062199244275689125	0.008350511081516743	-0.0005272073904052377	0.011216267943382263	0.00521157868206501	-0.015334069728851318	-0.0015702414093539119	0.0014057597145438194	0.001678945729508996	-0.009076125919818878	-0.004402659833431244	0.0007550651207566261	-0.002915233839303255	0.001497238758020103	0.018771545961499214	0.00122690643183887	-0.005390658974647522	-0.010872132144868374	-0.00560018653050065	-0.001985847484320402	0.004317127633839846	-0.005223099607974291	0.013073920272290707	0.006488826125860214	0.017430515959858894	-0.0017988119507208467	0.0032839863561093807	-0.0027236558962613344	0.009164988994598389	0.001652945182286203	0.003004838014021516	0.018325217068195343	-0.005826493259519339	-0.007876784540712833	0.012758166529238224	-0.007397431414574385	0.007045057602226734	-0.003614443587139249	0.007994524203240871	-0.01015689130872488	0.025345703586935997	0.0028415038250386715	-0.0013747371267527342	-0.0035517513751983643	-0.0037845929618924856	0.00746200792491436	-0.017358096316456795	0.00975640770047903	0.008131478913128376	-0.009297836571931839	0.008730738423764706	-0.011709691025316715	0.006490563508123159	-0.0030865406151860952	0.0044591231271624565	-0.18964889645576477	-0.0055691893212497234	0.00043416244443506	-0.008024469949305058	-0.00779904518276453	-0.005114705767482519	0.013611571863293648	-0.0006376715027727187	-0.006861163303256035	-0.0023861911613494158	0.012980233877897263	0.010694840922951698	0.0031814819667488337	0.004158829338848591	-0.0007838599267415702	0.004506899509578943	-0.006183873396366835	-0.0152348093688488	0.003368609817698598	-0.00710678193718195	0.011834505945444107	-0.01581190526485443	-0.21225734055042267	-0.700384259223938	-0.009018645621836185	0.0007590599707327783	-0.005104210693389177	-0.009180357679724693	-0.009028113447129726	0.0051450408063828945	-0.008068644441664219	0.003189337207004428	-0.003819104516878724	0.012404696084558964	-0.006179517600685358	-0.017990930005908012	-0.005539559293538332	-0.002898036502301693	0.0017906446009874344	0.015653017908334732	-0.0020005458500236273	-0.010525934398174286	0.022829817607998848	-0.0040376801043748856	-0.003527090884745121	-0.0038472118321806192	0.0068672397173941135	-0.005439540836960077	0.00042595790000632405	0.003743149107322097	0.00580308074131608	-0.004721714649349451	0.015359600074589252	-0.009719984605908394	0.004037145525217056	0.004781033378094435	0.004529070574790239	-0.00040273493505083025	-0.0066468906588852406	0.012268232181668282	-0.005049176514148712	0.004492138512432575	-0.010793743655085564	0.011164781637489796	0.0045790416188538074	-0.009551877155900002	-0.003606626531109214	-0.003065849654376507	-0.001846823375672102	0.007804911583662033	0.01580077037215233	0.003103887429460883	-0.0019378582946956158	0.011539452709257603	-0.005160386208444834	-0.005735055077821016	0.0005029927706345916	0.0011801322689279914	0.0034204248804599047	0.013227393850684166	-0.011221321299672127	0.006341750733554363	-0.0011321798665449023	0.0021407585591077805	0.0009213287266902626	-0.0058944025076925755	0.007798830512911081	-0.009754316881299019	0.0004332247481215745	0.005867257714271545	-0.005822606384754181	0.0021727504208683968	0.00271393614821136	-0.0027355372440069914	-0.006344737485051155	-0.004823070485144854	0.004664355888962746	-0.0052907769568264484	-0.01174502819776535	0.012557169422507286	0.010728496126830578	0.0061265695840120316	0.0012277554487809539	0.005010990425944328	-0.007468974683433771	0.004415638744831085	0.01340163592249155	0.007900707423686981	-0.006946580484509468	-0.014599519781768322	-0.008662428706884384	0.0007531224400736392	0.0038713570684194565	0.0020700842142105103	-0.007479870226234198	0.0048458450473845005	0.005098241847008467	0.012612641789019108	-0.011735014617443085	0.0029987655580043793	-0.0017026010900735855	-0.006859384477138519	-0.014383711852133274	-0.011728950776159763	-0.0009022553567774594	-0.002881172811612487	0.01292910985648632	0.007454199716448784	-0.009051784873008728	-0.004114894662052393	0.010416965931653976	0.012045156210660934	-0.006062546279281378	0.0031179343350231647	0.002284754067659378	0.01057029515504837	0.009969789534807205	-0.006952409166842699	0.003533395938575268	0.002622620202600956	0.007482198998332024	-0.002824194962158799	0.008598647080361843	-0.005705836229026318	-0.006644296459853649	0.002719821408390999	-0.005871725734323263	-0.010036666877567768	-0.00979046244174242	0.0015919352881610394	0.0062599084340035915	0.003511816496029496	-0.0071315523236989975	0.006672997027635574	0.005588237661868334	-0.01097359973937273	0.0066794417798519135	0.005670046433806419	0.00588727742433548	-0.008016261272132397	-0.008455791510641575	0.011274904944002628	0.0019749486818909645	-0.0051006716676056385	0.007612384390085936	-0.009535474702715874	0.0032281214371323586	0.005196418613195419	0.0038823795039206743	-0.004322496708482504	-0.009218206629157066	-0.0060118273831903934	-0.002552231540903449	0.0015630250563845038	0.014682563953101635	0.005970239173620939	-0.011728297919034958	0.0010219586547464132	0.01838899403810501	-0.007355615496635437	-0.0036822690162807703	0.0012340790126472712	-0.00750718405470252	0.022014064714312553	-0.00987893808633089	0.0004026465176139027	-0.004482756834477186	-0.0014152850490063429	0.0073663098737597466	-0.014985606074333191	0.020425375550985336	-0.0012716208584606647	-0.004797801841050386	0.013973687775433064	0.028249546885490417	-0.00804724358022213	0.007788317743688822	-0.002606263617053628	0.00273676635697484	0.012810656800866127	-0.004409499932080507	0.009197141975164413	-0.004014907404780388	-0.0024731054436415434	-0.0034282340202480555	0.002947839442640543	-0.005116241984069347	-0.009715823456645012	0.008148514665663242	0.005667580757290125	-0.01133236289024353	-0.009688260965049267	0.0030454695224761963	-0.0010059216292575002	0.0038529904559254646	0.003084918949753046	-0.002196450484916568	0.004017614293843508	0.006048622541129589	-0.0037921404000371695	-0.0014683877816423774	-0.0015615798765793443	-0.005878455005586147	0.000131556429550983	-0.02260374277830124	-0.006472192704677582	0.006185957230627537	-0.0009859480196610093	-0.001011442276649177	0.011248238384723663	-0.006858506239950657	0.0037781735882163048	0.005165901500731707	-0.0009013629169203341	0.0036914513912051916	0.008532035164535046	-3.665953772724606e-05	0.004455859772861004	0.0025407865177839994	-0.0005410011508502066	0.007738934364169836	-0.0022857217118144035	0.009978407993912697	-0.01335946749895811	0.004653500858694315	-0.003876796690747142	0.006821364630013704	-0.008951006457209587	0.01073757279664278	-0.022551411762833595	0.0027533923275768757	0.009762430563569069	-0.01190872024744749	0.008305676281452179	0.011967289261519909	-0.011629834771156311	0.0022246763110160828	0.01447497121989727	-0.003659760346636176	0.00014412705786526203	0.0059219058603048325	0.00018006417667493224	0.0037617338821291924	-0.0036871701013296843	-0.006553079001605511	0.004263683222234249	0.004047063644975424	0.015141487121582031	0.006138371769338846	0.005159837193787098	-0.0020844582468271255	-0.004301751963794231	-0.015365853905677795	0.008456308394670486	-0.003